{"name": "galaxie", "layers": [{"W": [[0.8788522481918335, 1.103210687637329], [-0.20002293586730957, 0.9719188809394836], [-0.320285826921463, 0.4044511318206787], [-0.31381353735923767, 0.775550127029419], [0.7028571963310242, -0.9083424210548401], [0.8687319159507751, 0.1536083072423935], [1.0832067728042603, -0.0673011988401413], [1.111130952835083, -0.6649371385574341], [1.4450368881225586, 0.12279768288135529], [-0.8260670900344849, 0.1470194160938263], [-0.8709641695022583, -0.37542688846588135], [-0.9100555181503296, 1.6600584983825684], [-0.8755336999893188, -0.4147184193134308], [-0.1861966997385025, -0.810392439365387], [0.2620803713798523, -0.9115992188453674], [0.8972477912902832, -0.9132731556892395], [1.2374225854873657, 0.14910252392292023], [-0.47966843843460083, 1.3313039541244507], [-0.19719508290290833, 1.9439030885696411], [0.39172399044036865, -0.6699270009994507], [0.8343779444694519, -0.7409687042236328], [0.38044244050979614, 1.191827416419983], [0.5375412106513977, -0.6933647990226746], [0.9664495587348938, 0.6813733577728271], [1.0400893688201904, -0.600043535232544], [-1.3244860172271729, -0.6248389482498169], [-0.6101714372634888, 0.9611269235610962], [0.2410239577293396, 0.6388106942176819], [0.5247126817703247, 0.048473961651325226], [1.0674574375152588, -0.7897401452064514], [0.2715839445590973, -1.2701141834259033], [0.3869765102863312, -0.5534378886222839], [0.2456873208284378, -0.49215832352638245], [0.9268864989280701, -0.7672718167304993], [-0.7413661479949951, -1.0178040266036987], [1.368853211402893, 0.2513320744037628], [0.7352727651596069, -0.9783746600151062], [-1.287804126739502, -0.987751841545105], [-0.8559738993644714, 0.6180984377861023], [0.2500360608100891, 1.116929292678833], [-0.5796635746955872, -1.1351677179336548], [0.5654454231262207, -0.6570303440093994], [1.3054578304290771, -0.4362568259239197], [1.096571445465088, -1.0806264877319336], [-1.0466675758361816, 0.47009554505348206], [0.3252168893814087, -0.5093247294425964], [0.7688239216804504, 1.005887508392334], [-0.6457036137580872, -0.46114400029182434], [1.086389422416687, -0.5580043196678162], [-0.34079039096832275, -0.9775120615959167], [-1.2212103605270386, 0.6924369931221008], [-0.07174557447433472, -0.9979767799377441], [0.36538732051849365, -1.118460774421692], [-1.1672335863113403, -0.6367449164390564], [-1.0213345289230347, -0.6523467898368835], [1.501358985900879, 0.2997666895389557], [0.8884284496307373, -2.275662899017334], [-0.8983169198036194, -0.38978955149650574], [0.5603137612342834, -2.4291093349456787], [-0.33735141158103943, -0.8237455487251282], [0.35730451345443726, -1.0619268417358398], [0.04971042275428772, -0.7782048583030701], [-0.689871609210968, -0.6513397693634033], [-0.15472948551177979, -1.3610942363739014], [1.283112645149231, -0.3996356129646301], [1.2459642887115479, 0.24684694409370422], [-0.7650494575500488, 0.791466474533081], [-0.3413432240486145, -1.1458072662353516], [-0.8666134476661682, -1.4045127630233765], [0.3719339370727539, 0.00158748182002455], [0.5559823513031006, -0.8707777857780457], [0.56354820728302, -0.9197412133216858], [-0.688930869102478, 0.7184172868728638], [0.4650667905807495, 1.1545490026474], [1.2486982345581055, -0.9641566276550293], [0.553533673286438, -0.7897523045539856], [0.02493765950202942, -1.6225035190582275], [0.8787150382995605, -0.8658103942871094], [0.5951379537582397, 0.685305655002594], [0.2120085060596466, -0.7154819369316101], [0.9139521718025208, 0.16504573822021484], [0.29666462540626526, -1.328150987625122], [0.7822030186653137, -0.22472500801086426], [-0.3174121379852295, 0.898766040802002], [0.33795979619026184, -1.2009708881378174], [-0.40864744782447815, 0.36105167865753174], [0.6678754687309265, -0.5600371956825256], [-0.5447008013725281, -1.0689268112182617], [-0.8023350834846497, 0.6148136258125305], [0.6277938485145569, -0.9551310539245605], [0.2550777792930603, 0.7641647458076477], [0.6831262111663818, -0.9722509980201721], [0.5030744671821594, 1.1378628015518188], [0.4932701587677002, -0.08920038491487503], [-0.3531027138233185, 0.5361905694007874], [-0.18566368520259857, -0.9128533005714417], [0.6372606158256531, 1.0027304887771606], [-0.249907448887825, -0.4488569498062134], [0.14689452946186066, -0.4777747690677643], [0.2108774036169052, 0.441683292388916], [-1.3124397993087769, -0.41594672203063965], [1.4215389490127563, 0.36420488357543945], [0.06827864050865173, -0.7406611442565918], [-0.575118362903595, -1.2452733516693115], [-0.9453132152557373, 0.7845621705055237], [0.554186999797821, 0.4051556885242462], [-1.1761215925216675, -0.7567991614341736], [-0.5446975827217102, 1.1089097261428833], [0.5066261887550354, -0.7748598456382751], [0.9541264772415161, -0.640987753868103], [-0.45596542954444885, 0.9063484072685242], [-0.6948312520980835, -0.26774337887763977], [-1.1580226421356201, 0.8615473508834839], [1.1128870248794556, 0.41428518295288086], [-0.668441653251648, -1.2908309698104858], [-1.4024637937545776, 0.9845882058143616], [0.44954344630241394, 0.8687595725059509], [1.2259958982467651, 0.30315133929252625], [0.46699759364128113, -2.3046395778656006], [-0.9902043342590332, -1.1393189430236816], [0.38997942209243774, -0.6491705775260925], [-0.25430476665496826, -0.7421591877937317], [0.13529880344867706, -1.7495195865631104], [-0.8573511242866516, 0.605972409248352], [-0.10866811871528625, 0.8109962940216064], [0.032948557287454605, -1.6768513917922974], [-0.09273849427700043, -0.5172659754753113], [-0.44119417667388916, -1.335705041885376], [0.6224960684776306, -0.7995119094848633], [0.4757319986820221, 0.44595229625701904], [0.49783989787101746, -0.9368947148323059], [0.6149182915687561, -0.6814687848091125], [0.29445233941078186, 0.9607491493225098], [-0.2905358076095581, 0.5057802200317383], [-0.13387954235076904, -1.0827608108520508], [0.6100106835365295, -1.8719236850738525], [0.5397940278053284, 1.176472544670105], [1.2445085048675537, -0.3630006015300751], [-1.0177229642868042, 0.26661550998687744], [0.9157266020774841, -2.1154794692993164], [-0.2877565622329712, -0.8253573179244995], [0.027553923428058624, -1.62165367603302], [-0.6220915913581848, -0.9789442420005798], [-1.3202266693115234, 0.954735279083252], [1.5050417184829712, -0.5002484321594238], [0.17077986896038055, -0.6893789768218994], [-0.9672231078147888, -1.2871959209442139], [0.25025755167007446, -0.7543727159500122], [-0.667353630065918, 0.09857987612485886], [-0.5386689901351929, -0.5687898993492126], [-0.0030284891836345196, -0.09353872388601303], [-0.3349801301956177, -0.6173116564750671], [-1.3046929836273193, 1.079298973083496], [-0.9635629057884216, 0.549377977848053], [-0.7938351035118103, 0.2620604336261749], [1.0871819257736206, 0.7581262588500977], [-1.1909961700439453, 0.5152983665466309], [0.9645416140556335, 0.1450333148241043], [0.6723741292953491, 1.3912941217422485], [-0.6895078420639038, 0.7792520523071289], [-0.7064658403396606, -0.2527105212211609], [1.0786006450653076, 0.6794832944869995], [-0.6151124238967896, -1.234875202178955], [-0.7637046575546265, -1.4753397703170776], [-1.3171719312667847, -0.32472681999206543], [1.4407120943069458, 0.19571757316589355], [-1.097341537475586, -0.8604509234428406], [0.8510538935661316, -1.0673505067825317], [-0.5175192356109619, 0.5647487044334412], [-1.0453295707702637, -0.2494414895772934], [-0.08730634301900864, -0.14882512390613556], [-0.45815274119377136, -1.3696832656860352], [-1.1374049186706543, -0.6442340016365051], [1.0250800848007202, -0.8328575491905212], [-0.7194204926490784, 0.6032804250717163], [0.338900625705719, 0.8316974639892578], [0.6242302060127258, 0.5001819133758545], [-1.3882378339767456, 0.35224130749702454], [1.2287088632583618, -0.4243679344654083], [-1.1286203861236572, 1.3577361106872559], [-0.30944469571113586, -1.3836675882339478], [-1.0700981616973877, 0.021769262850284576], [0.5460487008094788, 0.8754393458366394], [0.1780819296836853, -0.8465437293052673], [-1.1271840333938599, 0.07357387244701385], [1.380334734916687, 0.5900589227676392], [-1.4355438947677612, 0.02890600450336933], [-0.6403456926345825, -0.4027951657772064], [-0.33639833331108093, 0.8537957072257996], [1.3503174781799316, -1.3843879699707031], [1.1629524230957031, -0.9631004929542542], [0.3467811644077301, 0.9079812169075012], [-0.31220555305480957, 1.9162639379501343], [-1.4648420810699463, -0.3737359642982483], [0.8686842918395996, -0.5218117833137512], [-0.4145796597003937, -0.6583720445632935], [0.5536853671073914, 0.43039315938949585], [0.34858980774879456, -0.6951504945755005], [-1.311497688293457, 0.24243557453155518], [0.23361657559871674, -0.6482770442962646], [-0.696806788444519, 1.7199934720993042], [0.1118956208229065, 0.3968905508518219], [-0.20608879625797272, -0.9502883553504944], [-1.0670762062072754, -0.4355442225933075], [-0.8489100933074951, 0.5065305233001709], [-0.11714273691177368, -0.8534666895866394], [1.2010374069213867, 0.7070502638816833], [1.1803332567214966, -0.6908469200134277], [-0.459887832403183, 0.6405044198036194], [-0.8668435215950012, -1.062475562095642], [-0.030667413026094437, -0.7272501587867737], [-1.1997617483139038, 0.5637916326522827], [1.2630172967910767, 0.3065981864929199], [-0.04403027147054672, -1.02216374874115], [-0.8228126764297485, 0.4930482804775238], [0.8616467118263245, -0.17119860649108887], [-0.21148283779621124, 0.7868847846984863], [-0.7303144931793213, 0.7842016220092773], [-0.6451491713523865, -0.0023992396891117096], [-0.3899441957473755, 0.4013974666595459], [-0.14688067138195038, 0.8489288091659546], [-0.47387930750846863, 2.208916187286377], [0.9858585000038147, -0.7154927849769592], [-1.2376091480255127, 0.9412328004837036], [1.1617443561553955, -0.7258909344673157], [0.4694227874279022, -1.570059895515442], [-1.1985671520233154, 0.3591053783893585], [0.5502663254737854, 0.13869242370128632], [-0.7372192740440369, 1.82029390335083], [0.32902640104293823, -0.794839084148407], [-0.558177649974823, 1.522453784942627], [0.18453556299209595, -0.909904956817627], [0.9056035280227661, -0.6128479242324829], [-1.0641257762908936, -0.6814875602722168], [1.3397468328475952, 0.941234827041626], [1.0682657957077026, 0.8776893019676208], [1.0196946859359741, -0.1619727611541748], [-1.0390007495880127, 0.49217063188552856], [-0.49101948738098145, -1.4377378225326538], [-0.729174792766571, 0.4469880759716034], [0.9327950477600098, -0.584426999092102], [-1.3510329723358154, 0.505728542804718], [-0.5528872609138489, -0.7273699045181274], [0.7602083683013916, -0.11750298738479614], [0.9328643083572388, 1.277557373046875], [0.25086259841918945, 0.5191832184791565], [0.3805333077907562, 0.1080564484000206], [-0.07853174209594727, -0.12487328052520752], [0.25919201970100403, 1.5321933031082153], [-0.10803119838237762, -1.0746420621871948], [-0.06627927720546722, -1.5990186929702759], [0.09195657819509506, 0.8706789612770081], [0.6845700144767761, 0.36450842022895813], [-0.877017080783844, -1.032824158668518], [-0.43219229578971863, -0.22685925662517548], [0.7162926197052002, -1.612429141998291]], "b": [-0.11028928309679031, -0.6240154504776001, -0.5000777840614319, -0.5776095390319824, 0.5412171483039856, -0.8150429725646973, 0.4362450838088989, -0.11039747297763824, -0.3388420045375824, 0.6104834079742432, 0.21866613626480103, 0.2693127393722534, 0.7423675656318665, -0.4276483952999115, 0.4041985869407654, 0.14694833755493164, -0.0903383120894432, -0.008658599108457565, -0.1306263506412506, -0.31695041060447693, -0.16320447623729706, 0.36150503158569336, 0.4354069232940674, -0.358869731426239, -0.6593566536903381, 0.29267457127571106, -0.47391873598098755, 0.5542044043540955, -0.578218936920166, -0.08028044551610947, 0.0719858780503273, 0.1500232219696045, 0.6513708829879761, 0.04208178445696831, 0.6329069137573242, 0.32904717326164246, 0.5170663595199585, 0.11833048611879349, -0.12929949164390564, 0.0906820073723793, 0.0793704241514206, 0.3000609874725342, -0.3846275508403778, -0.5287097096443176, 0.49146127700805664, 0.1400947868824005, -0.02516942098736763, 0.7860396504402161, 0.36648091673851013, 0.8069196939468384, 0.21009579300880432, -0.49892064929008484, -0.2906200587749481, -0.17836715281009674, -0.31347212195396423, -0.6108728647232056, -0.3324771821498871, -0.5239605903625488, -0.12320421636104584, -0.694571316242218, -0.20458583533763885, 0.3840232193470001, 0.7303392291069031, 0.10615363717079163, -0.499233216047287, 0.13720455765724182, -0.3318539559841156, 0.04648460075259209, 0.5050719976425171, -0.7286028861999512, 0.13998275995254517, 0.5738290548324585, 0.1553295999765396, -0.10576949268579483, -0.5765446424484253, -0.013490266166627407, 0.22100771963596344, 0.15732525289058685, -0.0074343252927064896, 0.6246873736381531, -0.7216686606407166, 0.23216183483600616, -0.5304250717163086, -0.5856626033782959, 0.02807912416756153, -0.5059547424316406, 0.4396464228630066, 0.354977011680603, -0.3091014325618744, 0.406223863363266, -0.7235975861549377, -0.25315365195274353, -0.3498162031173706, -0.7322831153869629, -0.4216906428337097, 0.16633473336696625, 0.2368694245815277, 0.765143096446991, 0.5156938433647156, -0.5271034836769104, -0.16836093366146088, 0.3642135262489319, 0.34575867652893066, 0.2630636394023895, 0.17800632119178772, -0.7039567232131958, 0.1451672613620758, 0.5587553977966309, -0.12859191000461578, -0.13888557255268097, -0.5613811612129211, -0.2674334943294525, 0.03565993532538414, -0.6761279106140137, 0.19224072992801666, 0.404649019241333, -0.8172951936721802, -0.06569023430347443, -0.06884099543094635, 0.03403507545590401, 0.29870766401290894, 0.6581934690475464, 0.09232094883918762, -0.21334737539291382, -0.6380853652954102, 0.018033821135759354, -0.6781908273696899, 0.08275578171014786, 0.17563626170158386, -0.7599797248840332, 0.5752622485160828, 0.41449302434921265, -0.8305401802062988, -0.35279572010040283, 0.4901569187641144, 0.05124271661043167, -0.3110469579696655, -0.5334319472312927, 0.7092363834381104, -0.211220845580101, 0.6722158193588257, 0.21990184485912323, 0.3772459328174591, 0.6567694544792175, -0.37833425402641296, -0.2897341251373291, 0.20598286390304565, 0.5617676377296448, -0.5129342079162598, 0.4588795602321625, -0.8768013715744019, 0.5421352982521057, 0.3571103811264038, 0.1264779269695282, 0.49127396941185, -0.28936567902565, 0.5932305455207825, -0.7345999479293823, -0.3367556631565094, 0.3022193908691406, 0.846794068813324, 0.09501691907644272, -0.16739532351493835, 0.6058397889137268, 0.1387045532464981, -0.37823426723480225, -0.33726465702056885, -0.08470247685909271, 0.5503504872322083, 0.40856289863586426, -0.499845415353775, 0.3813742399215698, 0.07943407446146011, 0.45085224509239197, -0.521887481212616, -0.4672418236732483, -0.781959056854248, -0.07511894404888153, 0.05155206471681595, 0.5649368166923523, 0.34940966963768005, 0.8490361571311951, -0.19722971320152283, 0.49026739597320557, 0.7710107564926147, 0.2331790328025818, -0.0586068257689476, 0.7546941637992859, 0.2246778905391693, -0.42347097396850586, -0.4894927144050598, -0.725055456161499, -0.1006673276424408, -0.23445093631744385, 0.22347691655158997, 0.45998936891555786, -0.7366989254951477, 0.2410648912191391, 0.0898451954126358, 0.36863091588020325, 0.20477449893951416, -0.7592626810073853, 0.7723997831344604, 0.8191817998886108, 0.4759659767150879, -0.4389544725418091, -0.4291779696941376, -0.3523111045360565, -0.17508465051651, 0.49345988035202026, 0.35411539673805237, 0.6944050192832947, -0.5658009052276611, 0.4974152743816376, 0.43200168013572693, -0.6930086612701416, -0.6730235815048218, -0.3353862762451172, 0.6114644408226013, -0.6822832822799683, -0.6325955390930176, 0.017533719539642334, 0.2863835096359253, 0.6423937678337097, -0.6449408531188965, -0.2466573715209961, 0.6019178032875061, 0.7689300775527954, 0.21256303787231445, 0.17477618157863617, 0.1004127487540245, 0.6737756133079529, -0.5176362991333008, -0.018310891464352608, 0.08929570764303207, -0.7333892583847046, -0.6181973218917847, 0.6372898817062378, 0.41531673073768616, 0.3848872482776642, -0.475288063287735, 0.13618487119674683, 0.7559986114501953, -0.590715765953064, -0.26664379239082336, 0.28087133169174194, -0.6184805631637573, 0.8160035610198975, -0.6039845943450928, 0.16035261750221252, 0.19685527682304382, -0.5917500257492065, -0.7826288938522339, 0.586194634437561, 0.4204736649990082, -0.31892427802085876]}, {"act": "tanh"}, {"W": [[-0.15156324207782745, 1.4334633350372314, 0.2073715627193451, 0.5341470241546631, -1.19377863407135, -0.13154102861881256, -0.17863842844963074, -0.5582261681556702, -1.4739691019058228, 0.12641219794750214, 0.29463696479797363, 0.0340704619884491, 0.3563334345817566, 0.024973945692181587, -0.38008323311805725, -0.6905891299247742, -0.3593481183052063, 0.02489345148205757, 0.025609221309423447, 0.006873618345707655, -0.24284154176712036, 0.0012649156851693988, -0.8784653544425964, -0.2625323534011841, -0.020360464230179787, 0.2152496725320816, 1.5673892498016357, -0.11322494596242905, -0.087331622838974, -0.4901893138885498, -0.08112845569849014, -0.5485908389091492, -0.16271258890628815, -0.6796833276748657, 0.20561450719833374, -0.11387570947408676, -4.339643478393555, 0.09584668278694153, 1.2847273349761963, -0.021892428398132324, 0.13995318114757538, -2.1928927898406982, -0.4743429720401764, -0.04512162134051323, 0.20329773426055908, -0.5162378549575806, -0.06312265992164612, 0.15156283974647522, -0.42859798669815063, 0.05109596624970436, 0.49159789085388184, 0.0878770500421524, 0.035961002111434937, 0.1794467270374298, 0.06593857705593109, -2.784040689468384, -0.010896359570324421, 0.10422379523515701, 0.04616977274417877, 0.022681446745991707, 0.0360400564968586, -0.2950172424316406, 0.42493876814842224, 0.03684414550662041, -0.5170514583587646, -0.22022145986557007, 1.982053518295288, 0.09164763987064362, 0.10896901041269302, 0.004562361165881157, -0.2971816062927246, -1.1535005569458008, 0.16553547978401184, -0.1365550011396408, -0.16152597963809967, -0.2738266587257385, -0.023286642506718636, -0.7788916230201721, -0.09371676295995712, -0.2984839081764221, -0.20608308911323547, -0.036093439906835556, -0.10825194418430328, 1.644065022468567, -0.13398674130439758, 0.19720102846622467, -0.4028583765029907, 0.15449464321136475, 1.2141348123550415, -1.145254135131836, 0.13986748456954956, 0.006190089043229818, -0.0908522829413414, -0.04993849992752075, 0.4075404703617096, 0.01028631255030632, -0.1059790700674057, 0.0070784990675747395, -0.12086251378059387, 0.047818347811698914, 0.1581883728504181, -0.1820535510778427, -0.2783608138561249, 0.15398259460926056, 0.25225701928138733, -0.11791589856147766, 0.1467750519514084, -0.036598823964595795, -0.036442723125219345, -0.31402114033699036, 1.7586137056350708, 0.11079950630664825, 0.6732662320137024, -0.8419524431228638, 0.10648838430643082, 0.25029197335243225, -0.044714514166116714, -0.18037699162960052, 0.05694834887981415, 0.0903463214635849, -1.3408467769622803, -0.07179214060306549, 0.009428542107343674, 5.681462287902832, 0.4574963450431824, 0.03315185755491257, 0.09294890612363815, 0.08688872307538986, -0.5852580666542053, -0.05385374277830124, -1.7252894639968872, -0.908302366733551, 0.1884952038526535, 0.5623669624328613, 0.020007064566016197, -0.0642438605427742, -0.08627437055110931, -0.29869285225868225, 0.054375842213630676, -0.03643026202917099, 0.010794459842145443, -0.03946997597813606, 0.1220933124423027, 0.14322009682655334, -0.4851108193397522, 0.05036736652255058, 0.17877674102783203, -0.5527629852294922, 0.1284339725971222, 0.5269562602043152, 0.04007432982325554, 0.25512561202049255, 0.1228216364979744, 0.5468688011169434, 0.11732976883649826, -0.20893803238868713, 0.23825179040431976, -0.2913382351398468, -0.12308033555746078, 0.08440782129764557, 0.02653169259428978, -0.13220515847206116, 0.13160879909992218, 0.11128412932157516, 0.23319536447525024, -1.3409284353256226, 0.07512474805116653, -0.21992652118206024, -0.027514206245541573, 2.1095187664031982, 0.06731991469860077, 0.05796033516526222, 0.1197977140545845, -0.9256667494773865, 0.2866196036338806, -0.10870668292045593, -0.23451769351959229, 0.7506119608879089, -2.4110562801361084, -0.023793021216988564, 0.005491787567734718, 0.13390393555164337, -0.1490822583436966, -0.7789908051490784, 0.21647097170352936, -0.09395208209753036, 0.3460366129875183, 0.08402927219867706, -0.04347703978419304, -0.13793310523033142, -0.07874586433172226, -0.10425562411546707, -0.03401355817914009, 0.14670830965042114, -1.289241909980774, 0.1346587836742401, -0.11417704075574875, -0.444040983915329, 2.5634446144104004, -1.2661455869674683, 0.038504716008901596, 0.04482298716902733, -0.2663925886154175, 0.4262029826641083, 0.13964563608169556, 0.0232106801122427, -0.3225848078727722, -0.24982595443725586, 0.6322304606437683, 0.25934162735939026, -0.1095476970076561, 0.18061496317386627, -2.103088855743408, -0.12299171090126038, 0.17907921969890594, -0.026165232062339783, 0.23826207220554352, 1.9655320644378662, 0.02883213758468628, 0.1477556675672531, 0.695231020450592, -0.015287183225154877, -4.861175060272217, 0.09416230022907257, -0.10630984604358673, -0.04879468306899071, 0.2764429450035095, -0.11721644550561905, 0.02163090370595455, -0.23986589908599854, 0.03098532371222973, -0.7349730134010315, -0.03866821900010109, 0.10759977996349335, -0.1435936987400055, -0.5799029469490051, -0.22699935734272003, 0.07255906611680984, 0.06604457646608353, 0.0972229465842247, -0.16234534978866577, 0.8978181481361389, 0.23424668610095978, -0.162420853972435, -0.16768068075180054, -0.060512248426675797, 0.0016927695833146572, -0.015157775953412056, -0.06030689552426338, 0.04727155342698097, 0.06526230275630951, 0.3537702262401581, -0.17928624153137207, 0.2629415988922119, 0.16867192089557648, -0.03522106260061264], [0.09732123464345932, -0.13398875296115875, -0.11777126044034958, -0.1683977246284485, 0.1317817121744156, -0.13736100494861603, 0.15784594416618347, 0.010426254011690617, 0.041636861860752106, 0.05129721015691757, -0.10140713304281235, 0.11420521885156631, 0.13433514535427094, -0.15045329928398132, 0.16513751447200775, 0.08874531090259552, 0.04073787480592728, 0.10515137761831284, 0.04600607231259346, -0.09816534072160721, -0.09219127893447876, 0.06880371272563934, 0.14662545919418335, 0.10739894211292267, -0.08110002428293228, -0.08908636122941971, -0.061638783663511276, 0.11928637325763702, -0.15716125071048737, 0.02304045855998993, -0.0019777712877839804, 0.1328618824481964, 0.13308562338352203, 0.060920704156160355, -0.0823187455534935, 0.0569935068488121, 0.06874018907546997, -0.01571776159107685, -0.07262735068798065, 0.1495678424835205, -0.12156050652265549, 0.1735781729221344, -0.06223587319254875, -0.039795152842998505, 0.14118218421936035, 0.18125982582569122, 0.12260271608829498, 0.1429602950811386, 0.11996382474899292, 0.12415343523025513, -0.03125112131237984, -0.0867660716176033, -0.11339613795280457, -0.09347259253263474, -0.1572345495223999, 2.154096364392899e-05, -0.0661250501871109, -0.14451175928115845, -0.07575520873069763, -0.18166904151439667, -0.09055616706609726, 0.18934443593025208, 0.15237218141555786, -0.0362916998565197, -0.07884515821933746, 0.03899998962879181, -0.10466716438531876, -0.05544865131378174, -0.08738052845001221, -0.11098187416791916, 0.11354049295186996, 0.12783969938755035, 0.041443053632974625, 0.1283094733953476, -0.05154745280742645, 0.007121422328054905, -0.0896206945180893, 0.13428035378456116, 0.059827931225299835, 0.1952524334192276, -0.12692983448505402, 0.006288338452577591, -0.09332030266523361, -0.11293218284845352, -0.07294123619794846, -0.11454036831855774, 0.10851998627185822, -0.1399686187505722, -0.15366314351558685, 0.1708747148513794, -0.13125155866146088, -0.06953297555446625, 0.05156411975622177, -0.08157527446746826, -0.09977465867996216, -0.06965480744838715, 0.06174898520112038, 0.07683015614748001, 0.140395849943161, -0.16746842861175537, -0.04479994997382164, 0.048289328813552856, 0.17174072563648224, -0.0006019730935804546, 0.0900646299123764, -0.09066527336835861, -0.12708911299705505, 0.15747015178203583, -0.10148502886295319, -0.06091425567865372, -0.06544072926044464, -0.15123243629932404, -0.05738246440887451, -0.05844107270240784, -0.10108824074268341, 0.03331514820456505, -0.08428189903497696, 0.08405070006847382, -0.026520464569330215, -0.11395074427127838, 0.1478782594203949, 0.09185697138309479, -0.08704663068056107, -0.18644286692142487, -0.09428168833255768, -0.05682222172617912, -0.18838901817798615, -0.018601754680275917, 0.13618068397045135, -0.10190897434949875, 0.08764082193374634, 0.14385105669498444, -0.038473960012197495, -0.09219606965780258, -0.044095806777477264, 0.02932644449174404, 0.07345883548259735, -0.08908074349164963, 0.14806239306926727, 0.026505814865231514, 0.06346957385540009, 0.0032708190847188234, -0.13103321194648743, 0.08451496064662933, -0.06682702898979187, -0.12983205914497375, -0.04718061909079552, 0.1262393742799759, -0.14802837371826172, 0.0164645966142416, -0.08527923375368118, 0.17048873007297516, 0.10759459435939789, -0.0330367386341095, 0.15388549864292145, 0.06168587878346443, 0.09975159913301468, -0.08760281652212143, -0.005203918553888798, 0.050460632890462875, 0.11459067463874817, 0.06415151804685593, -0.08383256196975708, -0.053080711513757706, -0.07209575921297073, 0.10065541416406631, -0.11694220453500748, 0.002056464087218046, 0.16539888083934784, -0.11839965730905533, -0.19196726381778717, -0.10649414360523224, -0.11087776720523834, 0.0854257121682167, -0.13701041042804718, 0.0032528138253837824, -0.13584192097187042, -0.11201547086238861, 0.07572832703590393, 0.12505675852298737, -0.08767605572938919, 0.051123861223459244, 0.12144368141889572, 0.13252058625221252, 0.14699925482273102, 0.13295045495033264, -0.03822542726993561, 0.06025321036577225, 0.14080910384655, -0.010017085820436478, -0.11036863178014755, -0.05195740610361099, 0.08689716458320618, -0.09925486147403717, 0.15624947845935822, 0.07853318750858307, -0.16503645479679108, 0.15220482647418976, -0.07222922146320343, 0.10523758828639984, 0.0848914161324501, -0.1886475682258606, 0.1607140451669693, 0.16678789258003235, 0.11604532599449158, -0.15821202099323273, 0.09075213223695755, -0.0644114762544632, -0.10715644061565399, -0.044146791100502014, 0.16010358929634094, 0.06667739152908325, 0.017348287627100945, 0.0741918757557869, 0.10510670393705368, -0.055408257991075516, -0.16106529533863068, -0.1313219517469406, 0.12504586577415466, -0.161343052983284, -0.08503122627735138, 0.04437929764389992, 0.05973028019070625, 0.07430700957775116, -0.11681225895881653, -0.06387705355882645, 0.08957845717668533, 0.08041233569383621, 0.036590155214071274, 0.03261421620845795, 0.052883297204971313, 0.18057002127170563, -0.11159186065196991, -0.043768588453531265, 0.08736740797758102, -0.001352887600660324, -0.08692910522222519, 0.15043221414089203, -0.09871775656938553, 0.05930258333683014, -0.03538503497838974, -0.015060355886816978, 0.063686802983284, -0.06936203688383102, 0.03405609354376793, 0.06355325132608414, -0.12488947808742523, 0.1655450463294983, -0.001753117423504591, -0.06045878678560257, -0.11935030668973923, -0.08892259746789932, -0.050188787281513214, -0.0394819900393486, 0.1332184374332428, -0.042883116751909256], [-0.0797887071967125, 1.0173048973083496, 0.12879696488380432, 0.39967799186706543, -0.4962327480316162, 0.1531788557767868, -0.05423330143094063, -1.871250867843628, -0.3760460615158081, 0.2295842170715332, 0.08923117816448212, 0.5467970371246338, -0.33803051710128784, -0.12359153479337692, -2.5228724479675293, -1.6523363590240479, -0.2294449359178543, 0.7345392107963562, 0.385656476020813, -0.23559455573558807, -1.4917711019515991, 0.06899668276309967, -0.4336058497428894, -0.030000394210219383, -0.3188818097114563, 0.23018082976341248, 0.8699597716331482, 0.03569509834051132, -0.05986611917614937, -2.5025746822357178, -0.5791275501251221, -1.8251821994781494, -0.10523005574941635, -1.6404601335525513, -0.33167845010757446, -0.12779347598552704, -0.6081072688102722, 0.13089771568775177, 0.8134692311286926, 0.1418551355600357, -0.09380440413951874, -0.6814200282096863, -1.400462031364441, -0.4557003080844879, 0.6487048864364624, -2.2872228622436523, 0.03942476585507393, -0.3854658305644989, -0.31156206130981445, -1.4623249769210815, 2.1896867752075195, -0.11011525243520737, -0.20705600082874298, 0.1135266125202179, -0.012628098949790001, -0.3728245198726654, -0.2755942642688751, 0.02542273886501789, -0.24727699160575867, -0.08109243959188461, -0.29093489050865173, -2.959831953048706, -0.9403244853019714, -0.2065122127532959, -1.2422140836715698, -0.160831019282341, 0.6688310503959656, -0.11505841463804245, -0.03006424754858017, -0.07521936297416687, -9.452800750732422, -0.5126023292541504, 0.899260938167572, 0.10104075819253922, -0.5743865966796875, -1.5952178239822388, -0.5316942930221558, -1.3843555450439453, 0.06179235130548477, -0.3523196578025818, 0.040065936744213104, -1.0297857522964478, -0.3760344386100769, 0.7224743366241455, -0.6935386657714844, 0.046694133430719376, -0.27024856209754944, -0.23777523636817932, 0.46372857689857483, -0.9907193183898926, 0.8401644825935364, -0.407956063747406, 0.1954495906829834, -0.15291759371757507, 0.2996113896369934, -0.3324217200279236, 0.08691632747650146, -0.13633261620998383, -0.14397476613521576, 0.40884721279144287, 0.15073615312576294, -0.1438891589641571, -3.084320545196533, -0.13346174359321594, 1.721601128578186, 0.352575421333313, 0.04567745327949524, 0.22893299162387848, -0.5678784847259521, -2.8982748985290527, 0.580241322517395, 0.015846161171793938, 1.9880770444869995, -0.0451493039727211, 0.021301593631505966, 1.2562623023986816, 1.2282462120056152, -0.11774776130914688, -0.3624037206172943, -0.0022784951142966747, -1.008110761642456, -1.0990285873413086, -0.3859061002731323, 0.5978314876556396, 0.5724751353263855, -0.25602301955223083, -0.10502548515796661, -0.10557355731725693, -2.1747400760650635, 0.27300313115119934, -0.590218186378479, -0.393543541431427, 1.1936125755310059, 0.3503085970878601, -1.3399254083633423, -0.738228976726532, 0.09254305809736252, -1.0123777389526367, 0.20507106184959412, -0.5374117493629456, -1.4182610511779785, -0.4445430636405945, -0.2117488533258438, 0.4488150179386139, -1.3094205856323242, -0.2404474914073944, 0.06137861683964729, -0.5085449814796448, 0.02618422731757164, -0.7344866991043091, 0.004236300475895405, -1.2445377111434937, 1.0941474437713623, 1.8975112438201904, 0.3638538420200348, -0.10889588296413422, 0.6351199746131897, 0.09600528329610825, -0.01564965769648552, 0.4364582896232605, -0.15660548210144043, -0.06245889514684677, -0.04281056299805641, -0.17045457661151886, 0.10920156538486481, -0.4194755554199219, 0.058406516909599304, -1.364457607269287, 0.16480638086795807, 0.1764303296804428, -0.07286804169416428, -0.27336886525154114, 0.13975387811660767, -0.2937328517436981, 0.20376217365264893, 0.9106778502464294, 0.5074461698532104, 0.3651215434074402, -0.4150828719139099, 0.3578415513038635, -0.40545833110809326, 0.002559304004535079, 0.11154139041900635, -1.3937851190567017, 0.0691789984703064, -0.12008728832006454, 0.25682276487350464, -0.3697657883167267, 0.33384037017822266, -0.7247054576873779, -0.707705020904541, 1.621891975402832, 0.47219523787498474, 0.14572729170322418, -0.44932636618614197, -1.0068038702011108, 0.3495263457298279, -2.2447092533111572, 0.4988844692707062, -1.012237310409546, 0.45763176679611206, 0.10633661597967148, -1.2775598764419556, -0.3254128396511078, 0.4779263734817505, -0.13137230277061462, -0.15318594872951508, -1.2852704524993896, 1.7565218210220337, 0.008413649164140224, -2.517754554748535, 0.36413559317588806, -0.3114273250102997, -2.277608871459961, 0.5553350448608398, -0.19810740649700165, 0.2949715256690979, 0.7193487286567688, 0.11503646522760391, 0.1307135820388794, 0.736541748046875, 0.3585793077945709, -0.49431198835372925, 0.3948262929916382, -0.41513118147850037, -0.36603784561157227, 0.6527847647666931, 0.014842512086033821, 0.4905723035335541, -2.826331853866577, 0.46888840198516846, -0.6012287735939026, -0.3432580530643463, 0.10762633383274078, -0.06047379598021507, 0.1863592267036438, -0.28659412264823914, 0.384735107421875, -0.1635628640651703, 0.48598712682724, -0.552433431148529, 0.9974874258041382, -1.0444495677947998, -0.12007405608892441, -0.07086879014968872, 0.08421321213245392, -0.029324179515242577, 0.03975798562169075, 0.7868207097053528, -0.3784823715686798, -0.25975117087364197, 1.7497087717056274, 0.2600191533565521, -0.09855794906616211, -0.20549146831035614, -0.3370799720287323], [0.19645339250564575, -0.04265929013490677, -0.028577353805303574, -0.08365481346845627, 0.18784256279468536, 0.467536598443985, 0.0648898258805275, 0.7929096817970276, 1.623748540878296, -0.3847351670265198, -0.4799942672252655, 0.20047006011009216, -0.730212926864624, -0.017183499410748482, 0.007896951399743557, 0.4042593538761139, 0.34825122356414795, 0.13483965396881104, 0.5131682753562927, 0.08406876772642136, 0.33871760964393616, -0.01295077707618475, 0.1048809140920639, 0.9065676927566528, 0.16687802970409393, -0.4147099554538727, -0.15222851932048798, -0.07402975857257843, 0.2936583161354065, 0.6186939477920532, -0.17716389894485474, 0.3064556121826172, -0.032633159309625626, 0.5477172136306763, -1.1520309448242188, 0.043271709233522415, 0.21604374051094055, -0.19861604273319244, -0.4189748167991638, 0.10797677934169769, -0.21248085796833038, 0.2375897616147995, 0.9788195490837097, -0.019971050322055817, -0.469309538602829, 0.2549605965614319, 0.07527709007263184, -0.42134958505630493, 0.2407083660364151, -0.23184160888195038, -0.7357481122016907, 0.006760392803698778, -0.033149395138025284, 0.011316247284412384, -0.01934436708688736, 3.0300159454345703, -0.30262061953544617, -0.0033331350423395634, -0.354126513004303, 0.013783581554889679, -0.06840601563453674, -0.17967629432678223, -0.6421422362327576, -0.21503153443336487, 0.7966592311859131, 0.12662513554096222, -0.3314228057861328, -0.1425258219242096, -0.790733814239502, 0.23636513948440552, 0.25419798493385315, 0.18563464283943176, -0.24975967407226562, 0.2466791570186615, 0.13826268911361694, 0.3309073746204376, -0.491943359375, 0.3591793477535248, 0.1517518162727356, -0.03591940179467201, 0.5797631740570068, -0.20495635271072388, 0.4593970775604248, -0.09279803186655045, -0.14647357165813446, -0.02508707530796528, 0.16765856742858887, -0.5541130900382996, -0.20092903077602386, 0.20792347192764282, 0.25098904967308044, -0.02619103714823723, 0.5945545434951782, 0.23244044184684753, -0.0145733542740345, -0.2659338712692261, 0.021638548001646996, -0.1578017771244049, -0.08883287757635117, 0.18345007300376892, -0.11217851936817169, -0.00556482607498765, -0.09625790268182755, -0.3472728729248047, -0.38886502385139465, 0.4336683750152588, -0.2166052758693695, 0.03881943225860596, 0.10792075842618942, 0.58784019947052, -0.08193376660346985, -0.05865262821316719, -0.5807948112487793, 1.1793454885482788, -0.28893569111824036, -0.32111871242523193, 0.3519791066646576, 0.19098737835884094, -0.34442564845085144, -0.18126504123210907, 0.1917315125465393, -0.3033645451068878, -0.3419983685016632, -0.36275503039360046, 0.01939096488058567, -0.2846686542034149, 0.12248598784208298, -0.21726877987384796, 0.27890685200691223, 0.2980167269706726, 0.1085418164730072, 0.2259940356016159, 0.22651034593582153, -0.06675548106431961, -0.5221816301345825, -0.33273768424987793, 0.40084129571914673, 0.74076908826828, -0.32253679633140564, -0.2936890423297882, -0.2729596495628357, -0.516305685043335, -0.8766989707946777, -0.0983165055513382, 0.9486679434776306, 0.026332741603255272, -0.2159838080406189, 0.08519575744867325, 0.012659315951168537, -0.9028655290603638, 0.0697767585515976, -0.4072524309158325, -0.23887744545936584, -0.8470013737678528, -0.48548194766044617, 0.37378498911857605, -0.3585861921310425, 0.6802756786346436, 0.41036495566368103, -0.11528518795967102, -0.3103945851325989, 0.08874715119600296, -0.09137710183858871, -1.0258294343948364, -0.34600043296813965, 2.0812370777130127, 0.07312501966953278, 0.16780288517475128, -0.07500562816858292, -4.539246082305908, 0.147915780544281, -0.5726214647293091, -0.16838060319423676, 0.3221440315246582, -0.08663232624530792, 0.7937348484992981, 0.4121409058570862, -0.37338554859161377, 0.5189707279205322, 0.08224835991859436, -0.5483461022377014, -0.4110887944698334, 0.29915016889572144, -0.03648596256971359, -0.49530649185180664, 0.04501858353614807, -0.28195759654045105, -0.48869141936302185, -0.03800043836236, 0.01868174411356449, 0.20263582468032837, 0.28456103801727295, 0.43897882103919983, -0.05465403199195862, 0.2563292384147644, -0.6512506008148193, 0.41480568051338196, 0.1378968358039856, -0.7165324091911316, 0.053932659327983856, 0.24119967222213745, 0.11453158408403397, -0.22197923064231873, -0.7785678505897522, -0.29004284739494324, 0.04218914359807968, 1.2272204160690308, 0.4855095148086548, -0.24172572791576385, -1.1127864122390747, -0.24862785637378693, -0.2167605608701706, 2.4103455543518066, -0.3250950276851654, -0.2924363911151886, 0.37583619356155396, -0.046669185161590576, -0.2073335200548172, -0.3043132424354553, 0.021586108952760696, 0.05416978523135185, 0.3913792371749878, 0.3685818612575531, 0.011288220062851906, 0.1352609544992447, -0.2090109884738922, -0.6087659597396851, -0.0876624584197998, 0.1913205236196518, 0.1124657392501831, 0.19055670499801636, 0.06996572762727737, 0.1965896636247635, -0.05817173793911934, 0.06654524058103561, 1.351224660873413, 0.4874582886695862, -0.265788733959198, -0.5853594541549683, -0.3105204105377197, 0.2943980097770691, -0.9480260610580444, -0.4732784032821655, 0.33575841784477234, 0.3833259046077728, -0.02981029823422432, 0.17560958862304688, -0.1364288032054901, 0.6945589184761047, -0.23387831449508667, -0.3533762991428375, 0.22318050265312195, 0.3649231493473053, -1.5395184755325317, -0.5346866846084595, -0.25648999214172363], [0.46154388785362244, 0.2796207070350647, -0.0033474338706582785, 0.0690838173031807, -0.1123347133398056, 0.13723279535770416, 0.149895578622818, 0.5250559449195862, 2.8702659606933594, -0.20209483802318573, -0.8407921195030212, 0.007946297526359558, -0.4787658154964447, -0.18122847378253937, -0.32000261545181274, -0.12240522354841232, 0.4587874412536621, 0.42798107862472534, 0.6120644807815552, -0.15565282106399536, 0.02437530644237995, 0.2567051947116852, -0.07165846228599548, 3.3525776863098145, 0.05793023109436035, -0.9423144459724426, 0.12812738120555878, 0.18497493863105774, 0.03323215991258621, 0.31004253029823303, -0.6398769021034241, -0.210512176156044, 0.018196653574705124, -0.009320245124399662, -1.0488429069519043, 0.09414930641651154, -0.14370431005954742, -0.42710310220718384, 0.013810522854328156, 0.3362847864627838, -0.5146361589431763, -0.13675223290920258, 0.8326237797737122, 0.05721673741936684, -0.235336571931839, -0.24543844163417816, 0.45729249715805054, -0.28030911087989807, 0.0107418829575181, -0.27234819531440735, -0.6008707880973816, -0.18135184049606323, -0.212387353181839, -0.23735681176185608, -0.15349413454532623, 1.2218012809753418, 0.003202528227120638, -0.1833232045173645, -0.12610779702663422, -0.16120333969593048, -0.12868602573871613, -0.37670788168907166, -0.41587138175964355, -0.5251480340957642, 0.5212045311927795, 0.16849660873413086, 0.03546232357621193, -0.33997103571891785, -9.385165214538574, -0.038868747651576996, -0.3613220155239105, -0.05013419687747955, -0.008483920246362686, 0.6035285592079163, 0.18570110201835632, -0.5036783218383789, -1.7817507982254028, -0.05519683659076691, 0.3918125629425049, -0.0362965352833271, 0.3744870126247406, -2.016282081604004, 0.08810434490442276, 0.17392832040786743, -0.6552190184593201, -0.013059061951935291, 0.01182209886610508, -4.337815284729004, -0.032861411571502686, -0.2251305729150772, 0.27586835622787476, -0.04451236128807068, 4.3326497077941895, -0.0020939449314028025, 0.021849583834409714, -1.0736435651779175, 0.2918236255645752, -0.08805455267429352, -0.0010338111314922571, 0.2111082524061203, -0.27467021346092224, 0.1381937563419342, -0.45881006121635437, -1.0740690231323242, -0.1245684027671814, 0.232138991355896, -0.41546058654785156, 0.0439094603061676, -0.1329788714647293, 0.29315313696861267, 0.10583905875682831, -0.1720913052558899, -0.11982505768537521, 0.797920823097229, -0.7654688954353333, -0.35788652300834656, 0.26316216588020325, 0.38291093707084656, -0.2550435960292816, -0.42472362518310547, -0.12806648015975952, -0.3253783881664276, -0.621743381023407, 0.023443207144737244, 0.16933487355709076, -0.39873185753822327, -0.04787455499172211, -0.6033801436424255, -0.2714301347732544, 0.1014731302857399, -0.14358371496200562, -0.06855008751153946, 0.30119583010673523, 0.043635573238134384, -0.8267824053764343, -0.4939350187778473, 1.669854998588562, 0.6017190217971802, -0.2294677048921585, -0.03648442029953003, -0.38000917434692383, -1.7474030256271362, -14.779484748840332, -0.19820916652679443, 1.0542018413543701, -0.21347619593143463, -0.6096019148826599, -0.11583957076072693, -0.03717879578471184, -0.7332033514976501, 0.00023059066734276712, -0.36591029167175293, -0.2421892285346985, -0.5657243728637695, -0.2320292890071869, 0.8763633370399475, -0.21594493091106415, 0.33884453773498535, 1.2804069519042969, 0.04149533063173294, -0.1456742286682129, 0.28704965114593506, -0.3214917480945587, -2.5201523303985596, -0.5269427299499512, 2.8826816082000732, -0.15412120521068573, -0.13329534232616425, 0.06177207827568054, -1.3269270658493042, -0.1042666807770729, -4.091603755950928, -0.47795844078063965, -0.08133824169635773, -0.033311329782009125, 0.8980205655097961, 0.24309523403644562, -0.15941856801509857, 0.22444574534893036, -0.04960735887289047, -4.445034027099609, -0.2309306412935257, 0.7070428133010864, -0.2465570867061615, -0.3272066116333008, 0.1822666972875595, -0.17604392766952515, -0.1925383061170578, 0.18642200529575348, 0.20543412864208221, 0.20196551084518433, 0.3860284984111786, 0.6147177815437317, -0.18405400216579437, -0.010438866913318634, -0.7846103310585022, 0.2097145915031433, -0.3052174746990204, -0.5318040251731873, -0.18086229264736176, 0.15103447437286377, -0.0008545849123038352, -0.3289357125759125, -0.5978180170059204, -0.13566426932811737, -0.10927365720272064, 4.969334125518799, 0.3452465832233429, 0.20742245018482208, -4.326281547546387, -0.5151591300964355, -0.22008970379829407, 1.028916597366333, -0.6805515885353088, -0.12587237358093262, 0.12376971542835236, 0.0882485881447792, 0.07607068866491318, -0.08227318525314331, -0.027271270751953125, 0.13230158388614655, 0.2151375114917755, -0.0345362164080143, -0.1714140772819519, 0.1946539282798767, -0.20147326588630676, -0.40080463886260986, 0.08138313889503479, 0.10643163323402405, -0.6244992613792419, 0.21103601157665253, -0.1982894241809845, 0.06414595246315002, -0.33627966046333313, 0.21241366863250732, 0.9095281958580017, 0.30205005407333374, -0.12594135105609894, -5.555644989013672, -0.020609470084309578, 0.09349191933870316, -0.6895907521247864, -0.3418811559677124, 0.09483499079942703, 0.8364090919494629, 0.15160337090492249, 0.06930018961429596, 0.05487945303320885, 1.1978377103805542, -0.9317203760147095, -0.8188266754150391, 0.31090614199638367, 0.24115031957626343, -1.73118257522583, -0.323812335729599, -0.02648412436246872], [-0.013028900139033794, 0.1295033097267151, 0.14709602296352386, 0.14996524155139923, -0.0877978503704071, 0.04228369891643524, -0.17358367145061493, -0.04558132588863373, -0.037899505347013474, -0.08046594262123108, 0.07807100564241409, -0.11488542705774307, -0.10772330313920975, 0.12674714624881744, -0.028309421613812447, -0.09348256140947342, -0.03914744779467583, -0.05452908203005791, 0.028542350977659225, 0.08863016217947006, 0.09604033082723618, -0.08846668154001236, -0.16293558478355408, -0.07017508149147034, 0.035223376005887985, 0.09672273695468903, 0.1213056817650795, -0.15077172219753265, 0.17231760919094086, 0.004072915762662888, 0.09210872650146484, -0.06914804875850677, -0.2048419713973999, -0.03557442128658295, 0.07057897001504898, -0.12117110937833786, -0.09674935787916183, 0.07241090387105942, 0.09904637932777405, -0.12493617087602615, 0.10206843167543411, -0.17030823230743408, 0.10410438477993011, 0.06623481959104538, -0.07009360939264297, -0.05605706945061684, -0.09925553947687149, -0.1265859752893448, -0.08471355587244034, -0.0910201221704483, 0.006402357015758753, 0.07134460657835007, 0.15122446417808533, 0.08622363209724426, 0.09678351879119873, -0.03629507124423981, 0.009492535144090652, 0.17510350048542023, 0.002529832534492016, 0.20403128862380981, 0.09916441887617111, -0.05629478022456169, -0.06903079897165298, 0.05471961200237274, 0.03185014799237251, -0.074679434299469, 0.17650733888149261, 0.10204014927148819, 0.05102473497390747, 0.21181201934814453, 0.02406211756169796, -0.08915072679519653, -0.06454325467348099, -0.05721769109368324, 0.12097334861755371, 0.1098855584859848, 0.05709293857216835, -0.09285743534564972, -0.056878767907619476, -0.17353922128677368, 0.14482952654361725, 0.07232388108968735, 0.15254086256027222, 0.1145225390791893, 0.021968083456158638, 0.20285530388355255, -0.1643899530172348, 0.10881911963224411, 0.1653040200471878, -0.1726273149251938, 0.12075749784708023, 0.07324366271495819, -0.03635085001587868, 0.12343115359544754, 0.1730201244354248, 0.14606860280036926, -0.057468198239803314, -0.08080557733774185, -0.13287761807441711, 0.07227394729852676, 0.13315024971961975, -0.10074815154075623, -0.04327432066202164, -0.016481302678585052, -0.0744144469499588, 0.08063733577728271, 0.11317835003137589, -0.06215314939618111, 0.1482151597738266, 0.1344727873802185, 0.07820115238428116, 0.1223229467868805, 0.02497631311416626, 0.09597321599721909, 0.07802962511777878, -0.029998065903782845, 0.15283681452274323, -0.09246841073036194, -0.04608304798603058, 0.019475942477583885, -0.10469400882720947, -0.0910346731543541, 0.053944867104291916, 0.11713644862174988, 0.06061927601695061, 0.010480422526597977, 0.20300805568695068, 0.017015963792800903, -0.05026530101895332, 0.12951281666755676, -0.13656415045261383, -0.09211418032646179, 0.07855723798274994, 0.1248866394162178, 0.017347456887364388, -0.04025587812066078, -0.05074460059404373, 0.15999428927898407, -0.12806934118270874, 0.05756337568163872, -0.17506210505962372, -0.017608629539608955, 0.07696622610092163, -0.09030399471521378, -0.013085811398923397, 0.12568223476409912, 0.0393545962870121, -0.17924898862838745, 0.17370745539665222, 0.0322725772857666, 0.20885507762432098, -0.08626915514469147, -0.013498111627995968, -0.013716679997742176, -0.16243870556354523, -0.07297294586896896, -0.11237094551324844, 0.11937560141086578, -0.01725541055202484, -0.062143031507730484, -0.09141755849123001, -0.0960417315363884, 0.07228032499551773, 0.032837748527526855, 0.06543463468551636, -0.01640678010880947, 0.047285549342632294, 0.07612723857164383, -0.1803523153066635, 0.019418122246861458, 0.1731114387512207, 0.07267628610134125, 0.11104176938533783, -0.08216849714517593, 0.12890861928462982, -0.07763227820396423, 0.07096067070960999, 0.0806674137711525, -0.10608723014593124, -0.013197232037782669, 0.10386404395103455, -0.1367264688014984, -0.1053728386759758, -0.1652108132839203, -0.09592035412788391, -0.1352098286151886, 0.09723438322544098, -0.14653414487838745, -0.05255763605237007, 0.0979061871767044, 0.026640446856617928, 0.035630643367767334, -0.0162686575204134, 0.07228535413742065, -0.1088835820555687, -0.10559593141078949, 0.1327485889196396, -0.14728014171123505, 0.0682748481631279, -0.1849363148212433, -0.019002748653292656, 0.15483801066875458, -0.16751468181610107, -0.12908925116062164, -0.13264718651771545, 0.07922866195440292, -0.0617239773273468, 0.09044646471738815, 0.09394759684801102, 0.04709077998995781, -0.02461293712258339, -0.13066533207893372, -0.06305674463510513, 0.017503200098872185, -0.04600680619478226, 0.09488232433795929, 0.14712710678577423, 0.10314235836267471, -0.147800475358963, 0.10929075628519058, 0.17149677872657776, 0.051373690366744995, -0.11931544542312622, -0.034924525767564774, 0.13205482065677643, 0.09196340292692184, -0.05242972448468208, -0.23987089097499847, -0.09940572082996368, -0.040039509534835815, -0.05400002747774124, -0.16673174500465393, 0.05411778390407562, 0.04721029847860336, -0.10971438139677048, -0.0737541913986206, 0.10510145872831345, -0.13190290331840515, 0.0891096368432045, -0.13117139041423798, 0.07727836072444916, 0.12863276898860931, -0.05443381518125534, 0.10899507254362106, -0.05338244512677193, -0.18248330056667328, 0.16962745785713196, -0.15037734806537628, -0.013325604610145092, 0.06142008677124977, -0.0087917884811759, 0.05627971887588501, 0.07871885597705841, 0.09714251011610031, -0.16776613891124725, 0.010243008844554424], [-0.3885938823223114, -0.16868749260902405, 0.014988966286182404, -0.05995892360806465, -0.07254882156848907, 0.14973348379135132, -0.15184596180915833, 0.16356712579727173, -0.2072916477918625, -0.2996462285518646, 0.35350242257118225, -2.0947394371032715, 0.2145565152168274, 0.23252542316913605, 0.3882405757904053, 0.01904100738465786, -0.2570626139640808, -1.478761911392212, -4.885296821594238, 0.5363204479217529, 0.6926210522651672, -0.2807268798351288, -0.03708336502313614, -0.6531057357788086, 0.6210330128669739, 0.35139837861061096, -0.03287813812494278, -0.23480898141860962, 0.0717654824256897, 0.1776876002550125, 1.86641526222229, 0.19971616566181183, -0.04409823194146156, 0.09014323353767395, 1.1550863981246948, -0.2018841654062271, 0.014465087093412876, 0.334940105676651, -0.06671453267335892, -0.5078787207603455, 0.49676230549812317, 0.05853002145886421, 0.0009167584357783198, 1.297332525253296, -0.7965251207351685, 0.24142050743103027, -0.38787293434143066, 0.10676100850105286, -0.13221727311611176, 0.30884796380996704, -0.1898329257965088, 0.3118095397949219, 0.6846017241477966, 0.2642437219619751, 0.21503640711307526, -0.6906389594078064, 1.9022300243377686, 0.12599524855613708, 2.803077220916748, 0.19222724437713623, 0.7678826451301575, 0.504598081111908, 0.3281129002571106, 1.201912760734558, 0.12368948757648468, -0.1733749657869339, 0.06235397607088089, 0.47802749276161194, 2.8502376079559326, 0.12567847967147827, 0.38690388202667236, -0.026009928435087204, -1.5056626796722412, -0.5754663348197937, 1.3427884578704834, 0.6226136684417725, 2.7271623611450195, 0.04377168416976929, -0.38177773356437683, -0.0304305087774992, 0.014022906310856342, 0.8979852199554443, 0.47895586490631104, -0.10281451046466827, 1.8631662130355835, 0.06005163863301277, -0.13816778361797333, 3.138921022415161, 0.02829708158969879, -0.004141801968216896, -0.2070222795009613, 1.21343195438385, -3.725109338760376, 0.21281948685646057, 0.006578484084457159, 2.5431079864501953, -0.31948837637901306, -0.060448866337537766, -0.05646586790680885, -0.0414498895406723, 0.24686545133590698, -0.22579121589660645, 0.4944196045398712, 0.9127994775772095, -0.6243215799331665, -0.08183015137910843, 0.28462955355644226, -0.5123870968818665, 1.4211640357971191, 0.25553569197654724, -0.05757524073123932, 0.21949723362922668, -0.12865960597991943, -0.6331904530525208, 0.5767821073532104, -0.35024774074554443, -0.28728413581848145, -0.30547699332237244, 3.5759599208831787, 0.34729474782943726, 0.1699003279209137, 0.2407023161649704, 6.789389610290527, 0.022320130839943886, -0.06105084717273712, 1.0925017595291138, 0.21683186292648315, 0.5941820740699768, 0.1321519911289215, 0.005290383938699961, -0.036397628486156464, 0.013855746947228909, -0.19989317655563354, 0.01830681785941124, 0.7019578218460083, 1.3146246671676636, -1.5024467706680298, 0.1673801839351654, -0.4227392077445984, 3.049095392227173, 0.26430657505989075, 3.1499087810516357, 3.4331252574920654, -1.0588886737823486, 0.016221532598137856, 0.37824583053588867, 0.4532230496406555, 0.08635134249925613, 0.17988990247249603, 0.6359096765518188, 0.10234413295984268, 0.2726973295211792, -0.520188570022583, -0.16212597489356995, -0.49068278074264526, -0.47145241498947144, -0.640545666217804, 0.012487909756600857, -1.085691213607788, -0.8330284953117371, -0.05536101013422012, -0.2816912531852722, 0.3608323633670807, 2.4435276985168457, 0.3159005045890808, -0.3510465621948242, 0.19364401698112488, 0.511529803276062, -0.4109024703502655, 0.8084753155708313, 0.13068914413452148, 4.216881275177002, 0.34836211800575256, -0.09648147970438004, 0.10585777461528778, -0.7797321081161499, -0.14107725024223328, 0.17608560621738434, -0.11558406800031662, -1.4101841449737549, 3.462278366088867, -0.28848204016685486, -0.6321712732315063, 0.21345579624176025, -0.2667056918144226, -0.20965176820755005, 0.20565280318260193, 0.1444999724626541, -0.6169071793556213, 1.1676976680755615, 1.3699405193328857, -0.3127933740615845, -2.731618881225586, 0.2388889044523239, -0.03639117255806923, 0.7338014841079712, -0.04145025834441185, 0.218112051486969, 0.11306805908679962, 0.11844915896654129, -2.5994772911071777, 0.016859302297234535, 0.14541134238243103, 0.2963384985923767, -0.9271482229232788, 0.25735998153686523, -0.6262378692626953, 0.545710027217865, -0.22299379110336304, 2.51143217086792, 0.4651171863079071, -0.8445360064506531, -0.8744754195213318, 0.5296595692634583, -0.9623717665672302, 0.29317528009414673, 0.045365337282419205, -0.04703666642308235, -0.19837749004364014, 0.1458212286233902, -0.08165030181407928, -3.9355483055114746, -0.07933303713798523, -1.1298105716705322, 1.0999488830566406, 1.155198574066162, -0.4389289915561676, -0.18544431030750275, -2.680725336074829, 0.506528377532959, -2.402406692504883, 0.061885226517915726, 0.8009041547775269, 0.30643075704574585, -0.22481316328048706, -1.0221253633499146, 0.42652586102485657, -0.6955755949020386, 4.058874607086182, -0.7964909076690674, 1.0430980920791626, -0.0007528582355007529, 0.2007690668106079, 0.2610214650630951, -0.6095265746116638, -0.23929239809513092, 0.14531278610229492, -0.12535077333450317, -0.861020565032959, 5.096005916595459, 6.727644920349121, -0.31551021337509155, -0.04995791241526604, 2.0394489765167236, 0.17700336873531342, 1.2589305639266968], [-0.07504608482122421, 0.527561604976654, 0.1251344233751297, 0.16373519599437714, -0.12417665123939514, 1.4080426692962646, -0.06749466806650162, 0.2825716435909271, 0.10633838921785355, -1.7037732601165771, -0.033847879618406296, -0.12460075318813324, -0.48209190368652344, 0.12442430853843689, -0.3895552456378937, 0.024652505293488503, -0.007099220063537359, -0.1547759622335434, -0.11062245815992355, 0.10766009241342545, 0.6499098539352417, -0.07922209054231644, -0.02107512205839157, 0.03720644488930702, 0.37086352705955505, -0.005650099832564592, 0.11156383156776428, -0.08095100522041321, 0.5937069654464722, 0.20766641199588776, 0.019619397819042206, 0.040745340287685394, -0.059063661843538284, 0.14193063974380493, -0.13404172658920288, -0.06465034186840057, -0.04569472000002861, 0.09463760256767273, 0.0013036439195275307, -0.057753194123506546, -0.01677708514034748, -0.07539965957403183, 0.3808650076389313, 0.29613399505615234, -0.6128608584403992, 0.06594301015138626, -0.035770233720541, -1.1068177223205566, -0.04871921241283417, -0.5940008163452148, -0.24139416217803955, 0.08116764575242996, 0.12206311523914337, 0.013938571326434612, 0.04290320351719856, 0.1817382425069809, 0.17350517213344574, 0.10707318037748337, 0.10175780951976776, 0.022365180775523186, 0.07776616513729095, -0.3898419141769409, -0.46392086148262024, 0.04342147707939148, 0.3887630105018616, 0.0013562367530539632, 0.009734426625072956, 0.05299897491931915, 0.021805010735988617, 0.11799009144306183, 0.028110643848776817, -0.12911944091320038, -0.39587530493736267, 0.02993948943912983, 0.6442697048187256, 0.2561229467391968, 0.07062368094921112, 0.059935931116342545, -0.03434713929891586, -0.1175602599978447, 0.664846658706665, 0.008878897875547409, 2.0466554164886475, 0.24058787524700165, 0.0295330211520195, 0.08671361207962036, -0.10900260508060455, -0.08126235753297806, 0.07542888075113297, -0.10655049234628677, 1.0789580345153809, 0.14503605663776398, 0.05706043168902397, 0.15260924398899078, 0.04416017606854439, -0.07177416235208511, -0.05068330839276314, -0.29728904366493225, -0.1234661117196083, 0.9647413492202759, 0.025623150169849396, -0.10225973278284073, -0.367684543132782, -0.01998312957584858, -0.4707208275794983, 1.1599875688552856, -0.013982878997921944, -0.061890967190265656, 0.13679446280002594, 0.2623494863510132, 0.14576385915279388, 0.09510856866836548, -0.2159186452627182, 0.21244129538536072, -0.012872960418462753, -0.4432043135166168, 0.6238407492637634, -0.06864465773105621, 0.12404514104127884, 0.010399466380476952, -0.017280492931604385, -0.8731192946434021, 0.04387291520833969, 0.016269948333501816, 0.3001466691493988, 0.10527096688747406, 0.04005079343914986, 0.03554215282201767, 0.000986953848041594, 1.517393708229065, -0.08881832659244537, -0.008393272757530212, 0.8097330927848816, 0.06190851330757141, -0.09065631777048111, 0.12387073785066605, 0.051160115748643875, 0.38280871510505676, -2.1755588054656982, 0.11837305128574371, -0.5357810854911804, 0.033282533288002014, -0.14859119057655334, -0.6162233948707581, 0.2032775729894638, 0.07406458258628845, 0.06203324720263481, -0.21207726001739502, 0.07540074735879898, -0.32538506388664246, 0.11134235560894012, -0.6080366373062134, -0.6265258193016052, -0.21418210864067078, -1.0389022827148438, 0.018873779103159904, -0.6104016900062561, 0.7283395528793335, 0.003483882173895836, -0.13969406485557556, -1.3293697834014893, -0.0025744454469531775, 0.11766321212053299, -0.06596538424491882, 0.010565456002950668, 0.08559653162956238, 0.1036166399717331, 0.33250197768211365, -0.10417323559522629, -0.21308471262454987, 0.0970258042216301, 0.004483346361666918, 0.007703712210059166, -0.032644785940647125, 0.09583983570337296, 0.14789053797721863, 1.1078965663909912, 0.07024511694908142, 0.04878769442439079, -0.2043675035238266, -0.009572523646056652, -1.1327509880065918, -0.017133567482233047, -0.847599446773529, -0.6196041703224182, -0.054382868111133575, -0.019428139552474022, -1.0812698602676392, -0.10345044732093811, 0.5215052962303162, 0.6877081394195557, 0.4971243739128113, -0.007709879893809557, 0.11257004737854004, 0.01785554178059101, -0.19646282494068146, 1.388330101966858, -0.19053666293621063, -0.018228216096758842, -0.22183112800121307, -0.07463719695806503, 0.21667863428592682, -0.8701825141906738, -0.3070802688598633, -0.7742800116539001, 0.03053615801036358, 0.020138906314969063, 0.4128536283969879, -0.07473363727331161, -0.09861506521701813, -0.309294193983078, -2.0401158332824707, 0.1447509080171585, -0.2593901753425598, -1.3236836194992065, 1.6136739253997803, 0.14966219663619995, 0.06887131184339523, -1.3938658237457275, 0.03586956486105919, 0.31770285964012146, -0.11965478211641312, 0.010049577802419662, -0.4436076879501343, 0.715787410736084, 0.11556225270032883, -0.5306589007377625, -0.034312654286623, -0.15429610013961792, -0.05114520713686943, -0.13538481295108795, -0.32158273458480835, 0.3208307921886444, -0.004438238684087992, -0.05451663210988045, 0.18896926939487457, 0.6292834877967834, -1.4095957279205322, 0.027059044688940048, -0.7431371808052063, 1.2191756963729858, -0.0681852251291275, -0.4774368107318878, 2.6312735080718994, -0.046863432973623276, -0.11064822971820831, 0.25256606936454773, -0.13945019245147705, 0.1250639408826828, 0.020720792934298515, 0.032224204391241074, 0.5704361796379089, 1.1761733293533325, -0.12179655581712723, -0.8101629614830017, 0.08425651490688324], [0.3672403395175934, 0.3632049262523651, 0.0662253201007843, 0.26507869362831116, -0.16956475377082825, 0.0891481265425682, 0.027219409123063087, -0.5377853512763977, 0.1479540467262268, 0.02557644248008728, -0.28410717844963074, 0.6079829931259155, -0.393964558839798, -0.19563362002372742, -0.62165766954422, -0.509659469127655, 0.04067598655819893, 1.7426412105560303, 1.1524553298950195, -0.23161259293556213, -0.8977418541908264, 0.12452711910009384, -0.25981542468070984, 0.6330087780952454, -0.08675617724657059, -0.29553455114364624, 0.36458003520965576, 0.12282132357358932, 0.07142787426710129, -0.6188591718673706, -1.6604951620101929, -0.5439525842666626, -0.08371083438396454, -0.42355096340179443, -1.6990773677825928, 0.05951972305774689, -0.26712530851364136, -0.24500146508216858, 0.3348569869995117, 0.37145552039146423, -0.3628489375114441, -0.34344521164894104, -0.332463800907135, -0.3536507189273834, 0.23409739136695862, -0.6686344742774963, 0.33785805106163025, -0.2797452211380005, -0.12510798871517181, -0.4762217700481415, 0.7030819654464722, -0.1931534707546234, -0.291990727186203, -0.15779297053813934, -0.07294263690710068, 0.6228749752044678, -0.43072158098220825, -0.022308282554149628, -0.6374291181564331, -0.07570622861385345, -0.3368692994117737, -0.7704476118087769, -0.5555535554885864, -0.6690554022789001, -0.25616997480392456, 0.037857554852962494, 0.22105172276496887, -0.4366014301776886, -1.3494763374328613, 0.07068325579166412, -0.8335786461830139, -0.27256911993026733, 0.7200887799263, 0.4773085117340088, -0.4184228777885437, -1.726921558380127, -2.1992831230163574, -0.4520018398761749, 0.25587940216064453, -0.18480946123600006, 0.2605498731136322, -3.424037218093872, -0.008760601282119751, 0.3042019009590149, -1.7241721153259277, 0.06145152822136879, -0.15180905163288116, -1.2710704803466797, 0.1641741544008255, -0.398111492395401, 0.3219084143638611, -0.4404430389404297, 1.4466155767440796, 0.055411629378795624, 0.13099327683448792, -1.0307443141937256, 0.18236953020095825, -0.15905939042568207, -0.16887937486171722, 0.28227540850639343, -0.11926423013210297, 0.09594502300024033, -0.7667582035064697, -0.6800020337104797, 1.106333613395691, 0.30353015661239624, -0.20037107169628143, 0.24353232979774475, -0.6881168484687805, -0.9037854075431824, 0.25292640924453735, -0.04319053515791893, 0.5600232481956482, 0.7802202105522156, -0.5158487558364868, 0.7917608618736267, 0.42734676599502563, 0.16238506138324738, -0.7227773666381836, -0.2778075635433197, -0.35087597370147705, -0.42257219552993774, -1.0247576236724854, 0.1911144256591797, 0.24677912890911102, -0.5421380996704102, -0.13970647752285004, -0.42895883321762085, -0.5115327835083008, 0.19902683794498444, -0.25664639472961426, -0.1416866034269333, 0.46545737981796265, 0.24490095674991608, -1.1018234491348267, -1.9361680746078491, 0.9647409915924072, -0.09288467466831207, -0.004836120177060366, -0.7861825227737427, -0.5453473329544067, -2.1183242797851562, -1.5487196445465088, 0.3040514290332794, -0.37494373321533203, -0.2550234794616699, -0.35809528827667236, -0.18337607383728027, -0.012441965751349926, -0.974807858467102, -0.012791975401341915, -0.6183790564537048, 0.7794491052627563, 0.5331292748451233, 0.12651818990707397, 0.3187302350997925, 0.19923675060272217, 0.19531887769699097, 0.734275758266449, 0.32117965817451477, -0.12104010581970215, 0.13813883066177368, -0.17285321652889252, -2.3402349948883057, -0.09811577945947647, 0.32956668734550476, -0.09810495376586914, -1.5811618566513062, 0.09721063822507858, -0.6177958250045776, -0.019313059747219086, -1.6990563869476318, -0.20552869141101837, -0.17939893901348114, 0.03797577694058418, 1.1795138120651245, 0.3259637653827667, 0.04179824888706207, -0.0938945859670639, 0.2901656925678253, -2.3316214084625244, -0.017767613753676414, 0.44776245951652527, -0.4744623005390167, -0.015528292395174503, 0.13038532435894012, -0.0014241550816223025, -0.32344263792037964, 0.3390684723854065, -0.7176976203918457, -0.5035448670387268, 0.6119130253791809, 1.3632330894470215, -0.10525564849376678, -0.20103491842746735, -1.0359447002410889, 0.26520660519599915, -0.548132598400116, 0.07363644242286682, -0.47390061616897583, 0.6725373864173889, 0.13831311464309692, -0.4093497395515442, -0.4841921627521515, 0.1773858219385147, -0.18293485045433044, 0.6471878290176392, -0.641254723072052, 0.5590614080429077, -1.4476150274276733, -0.8101015686988831, 0.1802963763475418, 0.5807773470878601, -0.9081850051879883, 0.3217489421367645, -0.0007212296477518976, 0.22033709287643433, 0.25093501806259155, -0.0010897639440372586, 0.044726137071847916, 0.2874847650527954, 0.8468454480171204, -0.2127893567085266, 0.2509635090827942, -0.2548867464065552, -0.4577910304069519, 0.0835830494761467, 0.03817078843712807, 0.6130930781364441, -0.9944576621055603, 0.8251998424530029, -0.2810397744178772, -0.22306282818317413, -0.2263636440038681, 0.1706477552652359, 1.2198964357376099, 0.06222512200474739, 0.15221582353115082, -1.8225278854370117, 0.2937058210372925, -0.27282002568244934, 0.22696144878864288, -0.5426048040390015, 0.03084426000714302, 0.5001271963119507, 0.2184160202741623, 0.023906264454126358, 0.0009333686903119087, 1.8885624408721924, -1.1247936487197876, -1.0680277347564697, 0.4983905851840973, 0.27507707476615906, -1.689816951751709, -0.348588228225708, -0.3715273141860962], [-0.06614262610673904, 0.7595949769020081, 0.09372372925281525, 0.1602141559123993, -0.11055821180343628, 3.1934449672698975, -0.08129734545946121, 0.2653335630893707, 0.14439928531646729, -1.368774652481079, -0.08134498447179794, -0.10263524204492569, -0.8090489506721497, 0.06758823245763779, -0.7272441983222961, 0.14877794682979584, 0.010893774218857288, 0.02471335045993328, 0.043592024594545364, 0.05116203799843788, 0.487737238407135, -0.046302374452352524, -0.06200149655342102, 0.11517365276813507, 0.23780988156795502, 0.027489343658089638, 0.10642308741807938, -0.05494508892297745, 0.46673694252967834, 0.3590948283672333, -0.08754635602235794, -0.13944876194000244, -0.11241114884614944, 0.2130511999130249, -0.2711105942726135, -0.03048514947295189, -0.12258441001176834, 0.028234876692295074, -0.08544690907001495, -0.041517190635204315, 0.025340713560581207, -0.0474206916987896, 0.449097603559494, 0.1504857987165451, -1.3913886547088623, -0.17525918781757355, -0.06235329434275627, -2.9353203773498535, -0.04212376847863197, -1.1176007986068726, -0.3919256627559662, 0.07849805057048798, 0.09641468524932861, 0.054106369614601135, 0.06909254938364029, 0.22885306179523468, 0.048332877457141876, 0.14037363231182098, 0.0238412506878376, 0.14678062498569489, 0.09461452066898346, -0.6699309945106506, -0.6684001684188843, -0.01959109865128994, 0.6243175864219666, -0.07872293144464493, 0.06606234610080719, 0.03256728872656822, -0.07349509000778198, 0.15048035979270935, -0.18518298864364624, -0.18634694814682007, -0.2149178683757782, -0.02088325098156929, 0.4577619433403015, 0.05772111192345619, -0.058166153728961945, 0.01578475534915924, -0.024862239137291908, -0.2117391973733902, 1.2254375219345093, -0.0726996660232544, 1.0824549198150635, 0.389122873544693, -0.02486588805913925, 0.12425854057073593, -0.011455829255282879, -0.10783933848142624, 0.014312013052403927, -0.11404074728488922, 2.2980926036834717, 0.12429933995008469, 0.04082344099879265, 0.2683454155921936, 0.08331874012947083, -0.07943718135356903, -0.032250143587589264, -0.3525243103504181, -0.12780413031578064, 1.0711102485656738, 0.13008572161197662, -0.15523013472557068, -0.585354745388031, -0.0202735997736454, -0.5989218950271606, 5.9075608253479, 0.06782418489456177, -0.09068731218576431, 0.051678236573934555, 0.4142426550388336, 0.24257449805736542, 0.03065822273492813, -0.19706475734710693, 0.4157775640487671, 0.05249829962849617, -0.8068769574165344, 1.1739712953567505, -0.03261568397283554, -0.03466581180691719, 0.11022534966468811, -0.2220831662416458, -1.7881956100463867, -0.02494310960173607, 0.03398331627249718, 0.5474027991294861, -0.014917966909706593, 0.14579935371875763, 0.037998348474502563, -0.06753339618444443, 1.1137208938598633, -0.1578565239906311, -0.025188567116856575, 1.7444915771484375, 0.20640629529953003, -0.2451573759317398, 0.027422336861491203, 0.0673547238111496, 0.6605116128921509, -1.1340601444244385, 0.08307130634784698, -1.1157885789871216, -0.06320030987262726, -0.09691028296947479, -0.3306271731853485, 0.3885798156261444, 0.1097133606672287, 0.018619591370224953, -0.2831662893295288, 0.04874648153781891, -0.36486944556236267, 0.13524849712848663, -0.9714870452880859, -0.45935550332069397, -0.3864680826663971, -1.390882968902588, 0.06308905780315399, -1.3173134326934814, 1.1923177242279053, -0.01945548690855503, -0.1274127960205078, -0.7990555167198181, -0.016338804736733437, 0.06988818198442459, -0.028191084042191505, 0.03724066540598869, 0.20460720360279083, 0.04003603383898735, 0.11286069452762604, -0.16806767880916595, -0.27611786127090454, 0.07488873600959778, -0.041780341416597366, 0.09415916353464127, -0.020445112138986588, 0.03129226341843605, 0.273348867893219, 2.4600019454956055, -0.0023372219875454903, 0.05656614899635315, -0.14547757804393768, -0.09389162808656693, -2.8559110164642334, -0.02015581727027893, -1.0825252532958984, -1.7139308452606201, -0.12799915671348572, 0.00606921361759305, -3.6784729957580566, -0.04153822362422943, 0.21613411605358124, 0.4485589861869812, 0.7864103317260742, -0.013079115189611912, 0.04860248416662216, 0.00981641374528408, -0.4095172882080078, 7.67714262008667, -0.4382372498512268, -0.1468299776315689, -0.39374250173568726, -0.067511186003685, 0.19547723233699799, -1.842219591140747, -0.6188351511955261, -0.5177605748176575, 0.10739858448505402, 0.07668506354093552, 1.0058766603469849, 0.06302236765623093, -0.13299545645713806, -0.4599975645542145, -0.7996633648872375, 0.26476678252220154, -0.3871507942676544, -0.6191263198852539, 0.6648617386817932, 0.29090961813926697, 0.08098036050796509, -0.6496503353118896, 0.09263520687818527, 0.5260140299797058, 0.026893775910139084, -0.011849245987832546, -0.241396963596344, 0.4184260666370392, 0.07945407181978226, -1.0786559581756592, -0.14169403910636902, -0.06181514263153076, -0.26198625564575195, -0.01041888166218996, -0.48730939626693726, 0.23403166234493256, 0.051972921937704086, -0.12803226709365845, 0.26755720376968384, 1.3822402954101562, -0.6127622127532959, -0.021638527512550354, -0.43730995059013367, 0.6186625957489014, -0.1860836297273636, -0.958961546421051, 1.016077995300293, -0.02269575744867325, -0.0385810062289238, 0.2811446785926819, -0.17662270367145538, 0.22441597282886505, -0.025528937578201294, -0.07526478171348572, 1.187981128692627, 10.592649459838867, -0.20492495596408844, -1.4125308990478516, 2.969990782730747e-05], [-0.02879534848034382, -0.48519405722618103, 0.05810138210654259, -0.19746758043766022, 0.15682028234004974, -0.3006777763366699, -0.07978688925504684, -0.01942136511206627, -0.2094157189130783, 0.15726104378700256, 0.16092301905155182, 0.22150877118110657, 3.9727206230163574, 0.05837637558579445, 0.5785985589027405, 0.2252751886844635, -0.15449491143226624, 0.07310238480567932, 0.05925904959440231, -0.04351000115275383, -0.09236259013414383, -0.06499464064836502, 0.157753586769104, -0.22873561084270477, -0.1121712401509285, 0.16176436841487885, -0.3195810317993164, -0.002740667900070548, -0.10884228348731995, 0.029751332476735115, 0.05236179381608963, 0.05489027872681618, 0.030115362256765366, 0.03561580181121826, 0.43098342418670654, -0.029625076800584793, 0.18072958290576935, 0.12254829704761505, -0.015789218246936798, -0.08227014541625977, 0.13790012896060944, 0.12281429022550583, -0.2968846559524536, -0.19578199088573456, 0.1903417706489563, 0.06895086169242859, -0.06336039304733276, 0.5831525325775146, -0.015474184416234493, 1.0789085626602173, 0.11589327454566956, 0.00026385358069092035, 0.0010105444816872478, 0.046676311641931534, 0.08170599490404129, -0.3877118229866028, -0.2894854247570038, 0.025292713195085526, -0.18623660504817963, 0.04908759891986847, -0.06877932697534561, 0.6251146197319031, 2.9187846183776855, 0.028569471091032028, -0.4812084138393402, -0.06856366246938705, -0.13699118793010712, 0.07431713491678238, 0.16324324905872345, -0.016173256561160088, 0.2282712757587433, 0.2355760782957077, 0.01868479512631893, -0.11392752826213837, -0.1765473484992981, -0.03633599728345871, 0.0519365556538105, 0.23312699794769287, -0.09850024431943893, 0.09016265720129013, -0.6438880562782288, 0.006747881881892681, -0.23160456120967865, -0.21404048800468445, -0.06283824145793915, -0.03382435068488121, 7.890306005720049e-05, 0.18861708045005798, -0.03159786015748978, 0.2699105739593506, -0.5764564871788025, -0.0787869542837143, -0.11840210855007172, 0.025511814281344414, -0.012841681949794292, 0.12488991767168045, -0.011696739122271538, 0.01679297164082527, 0.06466520577669144, -0.26812681555747986, 0.11945945769548416, -0.10668046027421951, 0.6138617992401123, 0.05352790653705597, 0.09549883008003235, -0.43680036067962646, 0.1613156795501709, 0.014537518844008446, 0.02830933965742588, -0.1433602273464203, -0.2601322829723358, 0.10561157763004303, -0.1671120673418045, -0.8903791308403015, 0.032196786254644394, 0.10430873930454254, -1.1182652711868286, -0.061625175178050995, -0.11136335879564285, 0.0758679211139679, 0.11227135360240936, 0.7074150443077087, 0.011246063746511936, -0.07693389803171158, -0.27080368995666504, -0.06835685670375824, -0.003429320640861988, 0.07195036858320236, 0.18701423704624176, -0.2101554274559021, 0.22905507683753967, 0.08453600108623505, -0.8217265009880066, -0.051605504006147385, 0.3583143651485443, -0.10961752384901047, -0.08009707182645798, -0.5883980393409729, 0.15901413559913635, -0.26910197734832764, 1.0334699153900146, 0.047865305095911026, 0.3123313784599304, 0.23407065868377686, -0.23023861646652222, 0.021966993808746338, 0.13040567934513092, 0.1914096474647522, 0.004835725761950016, 0.5946730971336365, -0.03031071648001671, 1.622551679611206, 0.18023237586021423, 0.16232754290103912, 0.2346063256263733, -0.20435349643230438, 0.3033621311187744, -0.6885096430778503, -0.061115216463804245, 0.07399243116378784, 0.17053672671318054, -0.11402357369661331, 0.017857199534773827, 0.15119844675064087, 0.17735959589481354, -0.3061501979827881, 0.05603478103876114, -0.10105540603399277, 0.04116860777139664, 0.4330451488494873, 0.0016437795711681247, 0.13136546313762665, 0.050547316670417786, 0.10963936895132065, -0.08069270104169846, -0.38280925154685974, -0.6856462955474854, 0.04114174097776413, 0.003263897029682994, 0.15954013168811798, 0.16638779640197754, 0.32573845982551575, -0.17826290428638458, 0.46042242646217346, 0.4149112105369568, -0.007676169276237488, 0.11503465473651886, 0.43134060502052307, -0.05252715200185776, -0.2867695391178131, -0.2053603082895279, -1.2683475017547607, 0.07856901735067368, 0.0991634801030159, -0.034992147237062454, 0.5172855257987976, -0.44620466232299805, 0.2434205561876297, 0.18130312860012054, 0.23822574317455292, 0.1460028737783432, -0.04133410006761551, 0.7002316117286682, 2.083045721054077, 0.16329380869865417, 0.07894355058670044, -0.20174092054367065, -0.14978724718093872, -0.15767802298069, 0.21221163868904114, 0.5601922869682312, 0.15352270007133484, -0.4938349723815918, 0.48737648129463196, 0.19158554077148438, -0.11523011326789856, -0.15356279909610748, -0.20016159117221832, 0.14226345717906952, -0.03715156018733978, -0.2929931879043579, 0.1769881397485733, 0.11963693797588348, 0.17727160453796387, -0.22630977630615234, -0.1415974348783493, 0.30969417095184326, -0.03770213574171066, 0.138008251786232, 0.19457457959651947, 0.06552566587924957, 0.24588902294635773, -0.06892503052949905, 0.1271311491727829, -0.02005952037870884, -0.405525803565979, -0.4243602454662323, 0.13620415329933167, 0.08730136603116989, 0.14527468383312225, -0.1062006950378418, 0.14146050810813904, 1.6685688495635986, -0.21217027306556702, -0.039173949509859085, -0.12452513724565506, -0.08747880905866623, 0.00841736514121294, -0.25231754779815674, 0.06865925341844559, 0.041895780712366104, -0.7466954588890076, -0.4053088426589966, 0.2735459506511688, 0.7798832058906555, -0.07834090292453766], [0.018522445112466812, -0.08287342637777328, -0.20664912462234497, -0.13981343805789948, 0.12004324048757553, -0.11193107068538666, 0.16295070946216583, 0.04797927662730217, 0.06786441802978516, 0.14728255569934845, -0.12022407352924347, 0.03585708886384964, 0.1206929087638855, -0.07762080430984497, 0.025907907634973526, 0.02960934489965439, 0.14785806834697723, 0.025695057585835457, 0.06310964375734329, -0.18210670351982117, -0.09279296547174454, 0.08165623992681503, 0.1678636521100998, 0.1324404925107956, -0.10093306750059128, -0.0647282600402832, -0.10247986018657684, 0.12064746022224426, -0.18983708322048187, 0.008833395317196846, -0.07564045488834381, 0.1511385291814804, 0.157854825258255, 0.08550174534320831, -0.030555834993720055, 0.14182738959789276, 0.027933437377214432, -0.03812369704246521, -0.09350516647100449, 0.1087496429681778, -0.03989842161536217, 0.1255466789007187, -0.09753042459487915, -0.12617288529872894, 0.03758963942527771, 0.14491163194179535, 0.1197650134563446, 0.07006095349788666, 0.14139074087142944, 0.05954891815781593, 0.002323739929124713, -0.15575696527957916, -0.05386658385396004, -0.05830845236778259, -0.08237995207309723, 0.0801975429058075, -0.006911450996994972, -0.12219370156526566, -0.07806044071912766, -0.16246499121189117, -0.12273012101650238, 0.16956301033496857, 0.07800454646348953, -0.04051056131720543, -0.013942834921181202, 0.13500888645648956, -0.07073145359754562, -0.1108623519539833, 0.009150385856628418, -0.1961013823747635, 0.061736322939395905, 0.09309903532266617, 0.09648009389638901, 0.02414032630622387, -0.0204931553453207, -0.06744027882814407, 0.015914756804704666, 0.04254316911101341, 0.0636071041226387, 0.10993046313524246, -0.20163418352603912, -0.0008134733070619404, -0.13123098015785217, -0.11160629242658615, -0.03537805750966072, -0.10539299249649048, 0.08186900615692139, -0.12702521681785583, -0.08409706503152847, 0.0459323413670063, -0.06643856316804886, -0.1263512521982193, 0.08280380070209503, -0.21123073995113373, -0.13357138633728027, -0.12080094963312149, 0.07755525410175323, 0.11697571724653244, 0.1666913628578186, -0.10372108221054077, -0.10479430854320526, 0.11599954962730408, 0.1896812915802002, -0.0068376073613762856, 0.05996540188789368, -0.20046313107013702, -0.05773862078785896, 0.13336029648780823, -0.16783060133457184, -0.19379307329654694, -0.08002172410488129, -0.0833507850766182, -0.11889827996492386, -0.15782468020915985, -0.0734889805316925, -0.0033397674560546875, -0.12023812532424927, 0.15283489227294922, 0.01810554414987564, -0.1099223643541336, 0.11127448081970215, 0.034954044967889786, -0.018827272579073906, -0.15901300311088562, -0.11928486824035645, -0.09138385206460953, -0.1527559906244278, -0.027422118932008743, 0.06762677431106567, -0.1318870633840561, 0.13520969450473785, 0.11468680202960968, -0.07390008866786957, -0.12459913641214371, 0.014750422909855843, 0.02392849698662758, 0.09684675931930542, -0.1989431232213974, 0.1756533980369568, 0.025113817304372787, 0.06359493732452393, 0.010574251413345337, -0.08230443298816681, 0.11517957597970963, 0.015444747172296047, -0.08833590149879456, 0.018653420731425285, 0.05773487687110901, -0.21114610135555267, -0.013245378620922565, -0.22188541293144226, 0.16310931742191315, 0.08872105926275253, -0.05874830484390259, 0.1716768592596054, 0.07363525778055191, 0.08041419833898544, -0.19757047295570374, 0.05818726867437363, 0.06649784743785858, 0.15331242978572845, 0.10963600128889084, -0.12785258889198303, 0.02415013499557972, -0.07703977078199387, 0.1302456259727478, -0.0714702233672142, -0.09085383266210556, 0.10492675751447678, -0.10964735597372055, -0.21913199126720428, -0.02420208416879177, -0.12433245778083801, 0.06259386986494064, -0.11660760641098022, 0.03396693989634514, -0.140056312084198, -0.1641591638326645, 0.12645336985588074, 0.09996282309293747, -0.0031674320343881845, 0.11340111494064331, 0.1473246067762375, 0.04099113494157791, 0.16507397592067719, 0.061807673424482346, -0.14361226558685303, 0.18250708281993866, 0.10014397650957108, -0.0156767126172781, -0.11571952700614929, -0.047528788447380066, 0.07901499420404434, -0.08586529642343521, 0.1797383725643158, 0.09132479876279831, -0.16268636286258698, 0.12820382416248322, -0.07365551590919495, 0.06964867562055588, 0.0912645161151886, -0.17886680364608765, 0.04890938475728035, 0.13583433628082275, 0.08019746840000153, -0.19842268526554108, 0.08842034637928009, -0.07335297763347626, -0.06605606526136398, -0.06335485726594925, 0.04560776799917221, 0.028467224910855293, 0.10824140161275864, 0.004599270410835743, 0.13590191304683685, -0.07801437377929688, -0.06192859634757042, -0.1413102149963379, 0.1330251544713974, -0.21301628649234772, -0.0474688857793808, -0.03721534088253975, 0.05107453465461731, 0.038296107202768326, -0.033389125019311905, -0.025452451780438423, 0.1504470556974411, 0.22147762775421143, 0.00801520049571991, -0.011723204515874386, 0.038692254573106766, 0.09907853603363037, -0.08712025731801987, -0.08011273294687271, 0.030338698998093605, -0.006523562129586935, -0.15683209896087646, 0.08553317189216614, -0.05727987363934517, 0.13714385032653809, -0.1649179756641388, -0.06408003717660904, 0.0624193511903286, -0.12163566797971725, 0.07749536633491516, 0.17626631259918213, -0.1281793862581253, 0.21551361680030823, 0.021672921255230904, -0.0717933177947998, -0.018906719982624054, -0.1383219063282013, -0.1721925586462021, -0.011885854415595531, 0.22389261424541473, -0.06584186106920242], [-0.39205798506736755, 0.3206928074359894, 0.15513652563095093, 0.2697385847568512, -0.7443301677703857, -0.20865370333194733, -0.2686995267868042, -0.4538148045539856, -1.398620843887329, 0.20117676258087158, 2.1347861289978027, -0.09385781735181808, 0.3786371052265167, 0.09988926351070404, -0.7094813585281372, -0.4536952078342438, -1.5341277122497559, -0.1821226328611374, -0.387569785118103, 0.003065757919102907, -0.19800707697868347, -0.10279858857393265, -0.5592665672302246, -3.5022573471069336, -0.09163501858711243, 1.3587549924850464, 1.1965866088867188, -0.022556882351636887, -0.23031039535999298, -0.36592692136764526, 0.11565243452787399, -0.7471728920936584, -0.12231387943029404, -0.44988662004470825, 1.2088937759399414, -0.20990034937858582, -1.0371121168136597, 0.44664788246154785, 1.207466959953308, -0.22385145723819733, 0.34757864475250244, -1.5698835849761963, -0.4307916760444641, 0.062109336256980896, 0.28164687752723694, -0.6701011061668396, -0.30369436740875244, 0.27898135781288147, -0.7709178924560547, 0.0870942696928978, 0.35919883847236633, 0.03259533271193504, 0.10396794229745865, 0.21988849341869354, 0.16383406519889832, -0.8486053943634033, 0.17243583500385284, 0.051337700337171555, 0.2755478620529175, 0.02240191213786602, 0.10124200582504272, -0.11867504566907883, 0.3626939356327057, 0.21702690422534943, -0.42830750346183777, -0.3893068730831146, 2.2233340740203857, 0.19431927800178528, 0.8993686437606812, -0.07168736308813095, -0.18851764500141144, -0.5754498839378357, 0.15015988051891327, -0.2949644923210144, -0.019721398130059242, -0.20064811408519745, 0.416329950094223, -0.6292505264282227, -0.269377201795578, -0.13580641150474548, -0.3419904410839081, 0.191855788230896, -0.17719966173171997, 0.4133038818836212, 0.18010978400707245, 0.10132774710655212, -0.4605318009853363, 0.5872707366943359, 1.3224618434906006, -1.729177713394165, -0.10666631162166595, 0.056830789893865585, -0.5725853443145752, -0.08390997350215912, 0.2843957543373108, 0.25784623622894287, -0.13844966888427734, 0.06637521088123322, -0.03220062330365181, -0.17647671699523926, 0.22118030488491058, -0.10190816223621368, -0.09306789934635162, 0.3735322654247284, 0.24506227672100067, -0.23380784690380096, 0.4603872001171112, 0.0074982899241149426, -0.06820238381624222, -0.3470519483089447, 0.5771671533584595, 0.12490599602460861, 0.3554077744483948, -0.593965470790863, 0.44348737597465515, 0.13701313734054565, -0.1879231035709381, -0.6999865770339966, 0.3443911671638489, 0.2591400444507599, -1.2227026224136353, 0.09377988427877426, 0.33526045083999634, 2.973639488220215, 0.11022462695837021, 0.34155187010765076, 0.012720701284706593, 0.32721754908561707, -0.542747974395752, -0.16595685482025146, -0.5627956390380859, -0.6787099838256836, -0.08925659954547882, 0.2837301790714264, 0.3873593211174011, 0.3642108142375946, -0.42148447036743164, -0.271370530128479, 0.2340458184480667, 0.2997789680957794, 0.23076540231704712, 0.3952554762363434, 0.9810000061988831, 0.06836621463298798, -0.49882403016090393, 0.042410604655742645, 0.4443463087081909, -0.2827094495296478, 0.09311528503894806, 0.7121714949607849, -0.08933538943529129, 0.3426494896411896, 0.10627992451190948, 0.47470179200172424, 0.26651644706726074, -0.8810984492301941, 0.2148759812116623, -0.3344818353652954, -0.5352592468261719, 0.008391622453927994, 0.25152841210365295, -0.22725772857666016, 0.16326455771923065, 1.1140707731246948, 1.019375205039978, -1.3815337419509888, 0.18368250131607056, -0.03764394670724869, 0.06444089859724045, 0.8796800374984741, -0.0342601053416729, 0.5461644530296326, 0.3760385811328888, -1.1577866077423096, 0.41295820474624634, -0.8493683338165283, -0.22077248990535736, 4.202669143676758, -2.7973148822784424, -0.08054801821708679, 0.4576081931591034, 0.2756933271884918, -0.42015495896339417, -0.28881219029426575, 0.2078244984149933, -0.14594468474388123, 0.942165732383728, 0.26210469007492065, -0.05850692093372345, 0.06977555900812149, -0.09802017360925674, -0.17996449768543243, -0.31871315836906433, 0.17547591030597687, -2.04813814163208, 0.6968291997909546, -0.21939218044281006, -0.6620333194732666, 1.8474293947219849, -0.43977090716362, -0.17929472029209137, -0.02419416233897209, 0.030856512486934662, 0.45819714665412903, 0.20811693370342255, 0.08989525586366653, -3.5397748947143555, -0.1599404215812683, 0.6620665192604065, 1.957965612411499, 0.20493008196353912, 0.19620195031166077, -0.8413868546485901, 0.16217300295829773, 0.15769504010677338, -0.1562822014093399, 0.19076168537139893, 2.0343916416168213, 0.20245106518268585, 0.09113146364688873, 0.20876364409923553, -0.30760547518730164, -2.6775596141815186, 0.050799690186977386, -0.06788554787635803, 0.10085714608430862, 0.30834320187568665, -0.02196136675775051, -0.17427872121334076, -0.16665588319301605, -0.1789589375257492, -0.18096865713596344, -0.13448403775691986, 0.3037321865558624, -0.2073420137166977, -0.8756794333457947, -0.25936219096183777, 0.09103158116340637, 0.5272477269172668, 0.21720919013023376, -0.1305111199617386, 0.667036235332489, 0.2906271815299988, -0.22395458817481995, -0.4264419972896576, -0.12044169008731842, -0.15777526795864105, 0.02816561795771122, -0.6239139437675476, 0.21202169358730316, 0.30149683356285095, -0.011658761650323868, -0.2693197429180145, 1.9264298677444458, 0.2961215078830719, 0.1586962342262268], [-0.020518962293863297, -0.7102472186088562, -0.03309813514351845, -0.24893802404403687, 0.20257899165153503, -0.24321383237838745, -0.0025267123710364103, 0.09660617262125015, -0.059916768223047256, 0.054422393441200256, -0.03733176365494728, -0.03848130628466606, 0.40079930424690247, -0.05554899573326111, 0.3032556474208832, 0.46209120750427246, -0.003089694306254387, 0.003952393773943186, -0.007625618018209934, 0.01687641814351082, 0.017979096621274948, 0.07931157201528549, 0.21368007361888885, -0.06168631091713905, 0.005018683150410652, -0.006107795052230358, -0.8876821398735046, 0.055836573243141174, -0.10708872973918915, 0.022040707990527153, 0.02381599321961403, 0.3609042763710022, 0.06992031633853912, 0.42017030715942383, 0.16726863384246826, 0.022107776254415512, 0.3490128815174103, 0.02921210788190365, -0.2551429271697998, -0.008794604800641537, -0.058775894343853, 0.33371618390083313, -0.13876423239707947, -0.07290588319301605, 0.09619928896427155, 0.26216521859169006, 0.08127425611019135, 1.0165276527404785, 0.07112997025251389, 0.2877120077610016, 0.02299577370285988, 0.00989405158907175, -0.06224270164966583, -0.05298314616084099, 0.0034596603363752365, -0.13233491778373718, -0.0790211483836174, -0.0643540620803833, -0.022893019020557404, -0.05442801117897034, -0.06301524490118027, 0.21873493492603302, 0.284552663564682, 0.03545880317687988, -0.2726253569126129, 0.030011268332600594, -0.28569260239601135, -0.06612294167280197, 0.06275203078985214, -0.004444696940481663, 0.13324488699436188, 0.2746654152870178, 0.0534893237054348, -0.046511270105838776, -0.047594454139471054, 0.01926914043724537, -0.03268197551369667, 0.667921781539917, -0.031683407723903656, 0.24816548824310303, -0.81142657995224, 0.09189222753047943, -0.09593222290277481, -1.328983187675476, 0.02994493953883648, -0.014653913676738739, 0.14439460635185242, -0.008931655436754227, -0.16231080889701843, 1.6439454555511475, -0.6151541471481323, -0.06782723218202591, -0.04316220059990883, -0.08903323858976364, -0.07031262665987015, 0.0770990252494812, 0.0817275196313858, 0.17375247180461884, 0.11693251132965088, -0.9081361889839172, -0.06946958601474762, 0.05126720666885376, 0.22102800011634827, -0.04693954810500145, -0.0300876684486866, -1.707972764968872, -0.02942757122218609, -0.007307346444576979, -0.01306978426873684, -0.10403002053499222, -0.5688942670822144, 0.007394568528980017, -0.2695433497428894, -0.3757960796356201, -0.06744995713233948, -0.02593541331589222, -0.34821587800979614, 0.07385396212339401, 0.03541437163949013, -0.010375739075243473, 1.6763056516647339, 0.41342660784721375, 0.03254992514848709, -0.12321128696203232, -1.6654670238494873, -0.06274542957544327, -0.010300969704985619, -0.011765759438276291, 0.25854921340942383, -0.4524787366390228, 0.5104211568832397, 0.17046570777893066, -0.4188351631164551, -0.2310570627450943, 0.17869430780410767, -0.028164317831397057, 0.011445441283285618, -0.5807933807373047, 0.11470578610897064, 0.016762785613536835, 0.290347695350647, 0.013243496417999268, 0.1490062177181244, 0.0014962363056838512, -0.01981714926660061, -0.036938585340976715, -0.04390324279665947, 0.4486909806728363, -0.03687279298901558, 0.1390240639448166, 0.0038501862436532974, 0.29132333397865295, 0.07250356674194336, -0.07893051952123642, 0.1411723494529724, 0.02029462717473507, 0.09189856797456741, -0.675783634185791, 0.0013043201761320233, -0.010084256529808044, 0.2315170168876648, 0.07274667918682098, -0.04374808073043823, 0.17353291809558868, -0.009256403893232346, -0.11175838112831116, -0.07894731312990189, 0.07381360232830048, 0.006335911341011524, 0.15960203111171722, -0.09537922590970993, 0.031018298119306564, -0.06490124762058258, 0.14393527805805206, -0.038213107734918594, -0.1466582715511322, -0.8625447154045105, -0.10935007780790329, 0.03414067625999451, -0.003520556027069688, 0.10974907875061035, 0.17304132878780365, 0.018641933798789978, 0.5382700562477112, 0.32858505845069885, -0.009111299179494381, -0.04846997186541557, 1.4077240228652954, 0.0529516376554966, -0.025096537545323372, -0.029620124027132988, -0.21843858063220978, 0.011647310107946396, -0.017049262300133705, 0.07282254844903946, 0.42264971137046814, -2.505916118621826, 0.29451486468315125, -0.0020410078577697277, 0.8976277709007263, 0.017130838707089424, -0.06749962270259857, 0.35865774750709534, 0.26701292395591736, 0.0858432874083519, -0.03358166664838791, -0.0656377375125885, -0.049953605979681015, -0.4425104558467865, 0.15143592655658722, 0.1746046245098114, 0.05041695758700371, -0.10115107893943787, 0.11442629247903824, 0.025125892832875252, -0.08690577745437622, -0.2763519287109375, -0.29108932614326477, 0.056631773710250854, -0.09290564060211182, -3.4795854091644287, 0.07537833601236343, 0.1624729037284851, -0.0037015590351074934, -0.025566015392541885, -0.021140489727258682, 0.24121922254562378, 0.08348537981510162, -0.02236756682395935, 0.16499680280685425, -0.0003718769585248083, 1.8498547077178955, -0.016183292493224144, 0.03292965888977051, 0.0606512576341629, -0.23278987407684326, -0.24046513438224792, 0.119170181453228, 0.01892535574734211, 0.005675939377397299, -0.08952587097883224, -0.07808457314968109, 0.2803442180156708, -0.09201046079397202, 0.04261210560798645, 0.07925195246934891, -0.04627848044037819, 0.06513211876153946, -0.06664691865444183, 0.04862740635871887, -0.053768523037433624, -0.2827170193195343, -1.3512840270996094, 0.18732799589633942, 0.5000957250595093, -0.015634220093488693], [-0.02546313777565956, 0.2045350819826126, 0.11856003850698471, 0.04640861600637436, 0.008205944672226906, 1.310925006866455, -0.13585637509822845, 0.5741001963615417, 0.14605000615119934, -2.3511838912963867, -0.0821973979473114, -0.21517464518547058, -1.0236010551452637, 0.08830931037664413, 0.022404136136174202, 0.3468296229839325, -0.02600029669702053, -0.2041378617286682, -0.062200307846069336, 0.14646005630493164, 0.5095556974411011, -0.08131129294633865, -0.07220140844583511, 0.15633049607276917, 0.5273016095161438, -0.08048173785209656, -0.06336360424757004, -0.16793209314346313, 0.6155043244361877, 0.7252877354621887, 0.06445720046758652, 0.26494571566581726, -0.11085136979818344, 0.3532326817512512, -0.2751511037349701, -0.13943177461624146, 0.0011793888406828046, 0.08144553750753403, -0.19191190600395203, -0.09584131091833115, 0.0627056136727333, -0.005490231793373823, 0.8906872868537903, 0.3834041357040405, -1.2003875970840454, 0.27780064940452576, -0.05245371162891388, -0.9594631195068359, -0.09811113774776459, -0.45100319385528564, -0.9183828830718994, 0.12665072083473206, 0.0851694643497467, 0.0999874621629715, 0.13702726364135742, 0.4031611680984497, 0.10614793747663498, 0.17573511600494385, 0.006090718787163496, 0.10830643773078918, 0.1421174556016922, -0.11314061284065247, -0.5959267020225525, -0.024530112743377686, 1.2380430698394775, -0.1314462125301361, -0.11313530802726746, 0.02489778958261013, -0.1689298301935196, 0.21042917668819427, 0.2966722548007965, 0.017029987648129463, -0.3942742943763733, -0.032035838812589645, 0.6465660929679871, 0.3488280475139618, -0.055805329233407974, 0.24456404149532318, -0.09157676249742508, -0.09345132112503052, 1.5251483917236328, 0.08224160969257355, 1.5699206590652466, 0.1020829826593399, 0.13989925384521484, 0.05680945888161659, -0.013375097885727882, -0.041116464883089066, -0.06554354727268219, 0.10811491310596466, 0.4944015145301819, 0.2345861792564392, 0.11371774226427078, 0.2954094707965851, 0.12804687023162842, 0.03381025791168213, -0.12192694842815399, -0.3407720625400543, -0.21091707050800323, 0.44137001037597656, 0.04216794669628143, -0.1748586744070053, -0.13419106602668762, -0.09146032482385635, -0.6979324221611023, 0.9174000024795532, 0.06264925003051758, -0.09459305554628372, 0.20367805659770966, 0.764989972114563, 0.021654393523931503, 0.07863757014274597, -0.5784658193588257, 0.6339852809906006, -0.0427560992538929, -0.8843774795532227, 0.6222493648529053, -0.003426643554121256, 0.09957757592201233, 0.007374596316367388, 0.030191944912075996, -0.574856162071228, 0.02255096286535263, -0.11156898736953735, 0.15095804631710052, -0.02786225825548172, 0.11452748626470566, 0.024462804198265076, 0.29863226413726807, 0.5294253826141357, 0.01031711045652628, 0.035361822694540024, 0.4764905273914337, 0.07099150121212006, -0.06507847458124161, 0.09114886820316315, -0.0009648985578678548, 1.3431775569915771, -1.7874248027801514, 0.2149192988872528, -0.4725634455680847, 0.01245095208287239, -0.10910379141569138, -0.6294524669647217, 0.5974119901657104, 0.05874510109424591, -0.0010026015806943178, -0.07274441421031952, 0.0437835231423378, -0.3841111361980438, 0.21573886275291443, -0.5743704438209534, -0.7098076939582825, -0.7700371146202087, -1.9090652465820312, 0.04258217662572861, -1.4876980781555176, 1.6872233152389526, 0.02798117697238922, -0.259565532207489, -0.7580767869949341, -0.03432564437389374, 0.029999500140547752, -0.22012096643447876, -0.0483878031373024, 0.16724111139774323, 0.08134535700082779, 0.5122392177581787, -0.26121267676353455, -0.3827928900718689, 0.08560184389352798, -0.10434387624263763, 0.02911919169127941, -0.057180967181921005, 0.07225152105093002, 0.23568856716156006, 0.9488993883132935, 0.015477349050343037, 0.08813832700252533, -0.20840321481227875, -0.07634934037923813, -2.20847749710083, 0.07238022983074188, -0.13017921149730682, -2.0550262928009033, -0.15164212882518768, 0.004361288622021675, -0.9212744832038879, -0.10951784253120422, 0.5776472091674805, 0.6160882115364075, 0.39202219247817993, -0.010280278511345387, 0.11189904063940048, 0.09447413682937622, -0.4071401059627533, 0.7658246159553528, 0.12295041978359222, -0.09817630052566528, -0.12935011088848114, -0.17819266021251678, 0.2682616114616394, -0.4432092010974884, -0.7350711822509766, -0.7034966349601746, 0.06647757440805435, 0.10052429884672165, 0.8984736204147339, -0.26855242252349854, -0.13385212421417236, -0.11169635504484177, -1.1539126634597778, 0.45221036672592163, -0.09909442067146301, -0.7685204148292542, 0.9383947253227234, 0.17669662833213806, -0.11148184537887573, -0.8054742217063904, 0.0954810231924057, 0.19768720865249634, -0.08005029708147049, 0.08925794064998627, -0.5390045642852783, 0.6702331900596619, 0.09684909135103226, -1.5424526929855347, -0.1666261851787567, -0.18020714819431305, 0.21062412858009338, -0.1035386472940445, -0.16481521725654602, 0.4991227090358734, 0.02560131438076496, -0.12476746737957001, 0.3361789882183075, 1.978102445602417, -0.8546603918075562, -0.03497040644288063, -0.582064151763916, 0.6995835900306702, -0.3320083022117615, -0.6548699140548706, 1.5911717414855957, 0.02956976741552353, -0.030694205313920975, 0.3924924433231354, -0.19426389038562775, 0.10749142616987228, -0.01790172979235649, -0.008952773176133633, 0.3701411485671997, 0.9066148996353149, -0.2169530689716339, -1.0836739540100098, 0.11422088742256165], [0.18586477637290955, 1.1727845668792725, 0.14060580730438232, 0.4145314693450928, -0.5094528198242188, 0.8024783730506897, 0.06476784497499466, 1.9471030100248754e-05, 0.4061928987503052, -0.5713180303573608, -0.381829172372818, -0.2220468670129776, -4.601245880126953, -0.10537335276603699, -2.2762198448181152, -0.7003796100616455, 0.1732446402311325, 0.1599450409412384, 0.09627515822649002, -0.03338231146335602, -0.15913738310337067, 0.031893108040094376, -0.34282588958740234, 0.562597930431366, 0.2515084445476532, -0.3191779851913452, 0.7024391889572144, 0.08903804421424866, 0.33562207221984863, -0.18314701318740845, -0.21657970547676086, -0.7567557692527771, -0.17732194066047668, -0.3666441738605499, -0.9946261644363403, -0.014283841475844383, -0.5958316326141357, -0.12713874876499176, 0.22958309948444366, 0.18909600377082825, -0.14361487329006195, -0.373536616563797, 0.7546560764312744, 0.2661912441253662, -0.6161403656005859, -0.950679361820221, 0.1549490988254547, -1.489376425743103, -0.11147905141115189, -3.7203102111816406, -0.21765649318695068, -0.009102558717131615, 0.04521709680557251, -0.114484041929245, -0.09870615601539612, 0.7928391695022583, 0.2238263636827469, -0.08979471772909164, 0.1383199393749237, -0.003530997782945633, -0.0720260739326477, -3.1753504276275635, -8.143455505371094, -0.13197553157806396, 0.8790979385375977, 0.10892673581838608, 0.49046993255615234, -0.15850259363651276, -0.40640607476234436, 0.11795059591531754, -1.0894399881362915, -0.5109421610832214, 0.04155830293893814, 0.2049086093902588, 0.44503822922706604, -0.44679003953933716, -0.2720634937286377, -0.6539822220802307, 0.23665347695350647, -0.33650147914886475, 1.9305086135864258, -0.41568851470947266, 0.3978388011455536, 0.7671974897384644, -0.169488787651062, 0.07436329871416092, -0.15741568803787231, -0.5150534510612488, 0.30562686920166016, -0.8702755570411682, 1.5528359413146973, 0.016122406348586082, 0.5308595299720764, 0.12824223935604095, 0.25931957364082336, -0.35571587085723877, 0.12780310213565826, -0.25552883744239807, -0.18839231133460999, 0.7424861788749695, -0.10303742438554764, 